3.258973105504062162e-01
-4.256000784187960462e-01
-3.913816486477710022e-02
-2.616004377793287872e-01
2.548169943515076960e-02
1.628029655226157502e-01
5.095223265085666586e-01
5.008544557087272198e-01
3.414258895087219914e-01
3.199958956942507982e-01
3.706904398395564626e-01
-1.264141471520723037e-01
-1.207940521113200494e-01
-2.797816990834208206e-01
-1.235059305132629320e-01
-4.319325614953228309e-01
-4.048917930783766522e-02
-3.339981110619240079e-01
2.696882071027117966e-01
1.383944624940207646e-01
2.862929123289064681e-01
-4.285402346470569557e-02
2.180957124160735061e-01
2.515565073770167359e-01
-2.607394502885937992e-01
1.862872907477783058e-01
-4.919440365939393156e-01
-5.195395604935887368e-01
-4.628541973334108772e-01
-2.496301414456238155e-01
-3.866342041550160924e-01
1.999433235748693527e-01
-3.439638248732887482e-01
-1.355506127344896228e-01
6.167730361945532314e-02
1.488494318533044591e-01
-5.213197515797165504e-01
3.952576065679114792e-01
-2.684498537706415666e-01
3.701461581956139169e-01
-6.433707884219570794e-02
3.133840748330871118e-01
-4.311389551646334084e-01
-9.176967886489816040e-02
3.041641472438643898e-02
-4.469549476705445556e-01
7.985977669760893627e-02
2.957829521902375358e-01
-4.719387943725092960e-01
1.307669396518367222e-01
-4.082086553388609290e-02
3.857835360930635810e-02
4.152198468775901083e-03
3.310959151771121767e-01
2.952430443314070785e-01
3.074065992449844797e-01
-1.370637923032692052e-01
-1.169592328190500741e-01
2.390220051932631304e-02
2.446638207252059827e-01
4.530491740196014860e-01
-3.441775347869550084e-01
5.017976238175595460e-01
4.135439178971958007e-01
2.410042469571223311e-01
7.169301309675515932e-02
8.120134565546273386e-02
9.507547550706653416e-02
1.285747149125995581e-01
-3.334540316871815735e-01
-4.195600572852377086e-01
2.574104314799449122e-01
2.997723546468467615e-01
-4.875795527671707430e-01
9.110050999332486299e-02
-2.804304249717425868e-01
2.422115271027539263e-01
2.176227552514917174e-01
-5.144089175448467860e-02
4.085910662456908038e-01
-3.760061724148008183e-02
3.699324839516915930e-01
4.040401194596544010e-01
1.404573568563646270e-02
4.634130364296950577e-01
4.785428668418709730e-01
3.346045566824074058e-01
4.042266906937525550e-01
3.943505318799089276e-01
9.061062687053640652e-02
3.900313642649231305e-01
-3.850247177749188676e-01
3.707547570049067875e-01
-1.918411421058363597e-01
1.199382672323542343e-01
-3.130928223983341363e-01
1.391987765583940495e-01
-3.918431858076075747e-01
-4.994230576523512322e-01
1.572190944640440291e-01
-9.851956342582621207e-02
4.027716630107130436e-01
-3.929057152029089006e-01
3.885608946497504101e-01
3.506498808323254557e-01
2.513100032083453450e-01
-4.427950279210333268e-02
-2.740451706183438252e-01
9.501207873639855306e-02
-2.185765182407810592e-01
-2.620783200372296950e-01
-2.988129969015175802e-01
4.574899720608662235e-01
-1.846050984760374269e-01
-1.502005842768367738e-01
5.287784017560978045e-01
3.726289496500731491e-01
2.377296858831023374e-01
2.674995841792734419e-01
2.800634528824634262e-01
-1.063890664036719336e-01
3.919172638016186205e-01
-3.101159231025245044e-01
2.687699159016009726e-02
-8.430309180030548522e-02
1.012604650011076635e-01
2.674456777195424184e-01
1.075540330227273550e-01
-1.283020418154621201e-01
4.655144477068414166e-01
-3.390611823838895478e-01
3.144778820083998228e-01
3.572281887818806179e-01
-5.365113190291581624e-02
-4.245808160186479996e-01
-4.398954225791842920e-01
2.144420809896681601e-01
-4.062000529701214474e-02
-2.661146483526790618e-01
-3.440585487940209242e-01
-4.347031580014844576e-01
2.993884356373046132e-02
-4.482621828714973278e-01
4.478086335906115156e-01
-3.454232745169323882e-01
-4.245390391492961379e-01
-3.987756350702439390e-01
3.104114258438788188e-01
-2.415766378492084296e-02
3.782626050041631438e-01
-1.411478178191820643e-01
3.242316827066901719e-02
1.609923317265335163e-01
1.148586863467809249e-01
-2.364870425996713488e-01
4.877415289952677369e-01
-1.885065594101421327e-01
-4.264676809943072910e-02
-2.087599427683320130e-01
5.123363493282009351e-01
1.646257335599724814e-01
3.958931413353387607e-01
-4.914995726745643306e-02
3.412349572623325500e-01
-2.741093400105745759e-01
1.081476283417579475e-02
-2.055277028764670166e-01
2.857230165300199687e-01
4.417851803435351998e-01
-4.405393534673764377e-01
1.597207107933535375e-01
1.121038404808791383e-01
2.264841402341958854e-01
5.928846107760431944e-02
1.398019683954265791e-01
1.218092056154107400e-01
2.121747693777435717e-01
-3.711879016452357960e-01
-3.363201359774640742e-01
7.136068052454852539e-02
-1.824462369636595249e-01
-2.459766821416359273e-01
-9.907043497924672426e-02
8.478368482930384586e-02
-1.266099275150402159e-01
3.642236875598482970e-01
-3.390005383473614908e-01
4.597603875602242485e-01
3.124591041902687882e-01
1.244021876343625044e-01
3.316995538255063103e-01
2.160786536824254866e-01
-2.304812121200006947e-01
2.494577465011269812e-01
-9.654564998358708405e-02
-2.500776022198142878e-01
-2.152537785637431700e-01
-3.281710180152328515e-01
-2.979119430989860540e-01
-3.160364117494256497e-01
1.206505057300597261e-01
-1.027746998245686050e-01
3.248796109889980355e-01
-1.462989942360409246e-01
-7.959500623682946863e-02
1.192101105317569243e-01
3.586514489864487398e-01
-1.248315231916277829e-01
-3.735926797160680768e-01
-4.910502129680082151e-01
-1.448789208908148052e-01
8.109346713620339819e-02
4.784380418453774153e-01
3.170245814410644902e-01
6.342091836252704284e-02
4.580764951034473897e-01
3.278195770009435517e-01
-5.174484758318124294e-02
3.991998216909620201e-01
-1.207004768082143714e-01
8.357360190549165124e-02
3.970648041143415297e-02
-4.653006691633571057e-01
3.794652529324653023e-01
-3.972919337455566025e-02
-4.813029974583536985e-01
-6.160717957560218200e-02
5.564260768348421038e-02
3.068404595541928126e-01
1.217752675552594560e-01
-3.015761044589061468e-01
1.491800068228299747e-01
-5.699095215150464661e-02
-3.825466894875378943e-01
-2.507497061825054215e-03
3.490107810526116294e-01
-3.904556069915606775e-01
-4.699077098312279821e-01
-3.287079703040883816e-01
-8.828862977682225277e-02
3.631273927080618802e-01
-3.952579439017583907e-01
-4.115798965357480022e-01
-1.765876389863223206e-01
2.756456837053871123e-01
-2.450378360553135682e-01
-3.462505775235172889e-01
9.613285737550025800e-02
-2.227101879347075375e-01
-1.355864381943876484e-01
-4.259872808600390637e-01
3.687232883090065250e-01
4.903251836716628898e-01
4.306918456637235382e-01
1.169326326456649051e-01
4.133279264370767758e-01
9.444764616073826613e-02
5.298818038428007027e-01
3.077557405844641991e-01
-3.198866800444858938e-01
2.123915733632638914e-01
6.163502059954530793e-02
-3.506910330754117733e-01
-4.718891021878833802e-01
4.115027446816931778e-01
-2.546025830934830689e-02
-1.948885257168844198e-01
-4.418823009034255067e-01
-3.917925486184651862e-01
3.049466275876836288e-02
-2.318114973037699866e-01
-4.631317815592225218e-01
-1.693821958676089423e-01
3.808948821779531424e-01
-3.758746078530342816e-01
2.395405701157387879e-01
5.775369584312491089e-02
2.987475310674845841e-01
1.558251214292692699e-01
9.951895264324556178e-02
-1.117193688352623449e-01
-8.539892334917210948e-02
2.308925932153274851e-01
3.915435618843396415e-01
4.164923613563810134e-01
-4.844988930128885651e-01
-3.035724929925535664e-01
2.494636704801007632e-01
2.897077208466740661e-01
4.024707090705563206e-01
-4.898697701487410017e-01
-4.404941690753616523e-01
1.381540486550306424e-01
5.020609046389750141e-01
3.048312587953758701e-01
-2.324811303389177908e-01
-2.158856072279710381e-01
-9.137196310503620245e-02
1.608562460020527551e-01
-1.026183764577930507e-01
-1.149574578719330248e-01
-1.623183111202373963e-01
-4.697278816924070344e-01
-1.523029628293501303e-01
-8.692088997910192572e-02
-4.724948162854940570e-01
-2.886652347666078255e-01
2.082523605292656566e-01
2.219885097074638658e-01
2.590870183945934713e-01
4.284716358660398683e-01
4.750351470979013446e-01
7.407348368807012418e-02
-2.991581258946414690e-01
4.148138669145020052e-01
-5.091924931499282048e-01
-1.450006521097624013e-01
-4.746904376288443861e-01
8.207383249773515799e-02
4.620402612448620827e-01
-2.347961429065200667e-01
3.543331185531308769e-01
4.735177282262582610e-01
2.133496909994650748e-01
3.187261638352751891e-01
-4.599215091468285554e-01
1.533876502050903201e-01
3.580523253954457502e-02
1.442465340892270798e-01
-2.232327029210313396e-01
-2.920528028535908094e-01
-5.316490589003155520e-01
2.314523876631953692e-01
-1.344251717106530741e-01
5.360042193826171086e-01
-2.759860067362397001e-02
2.552435252828240131e-01
-2.229697767716350421e-01
-3.538597196849189719e-01
-3.670947067731931135e-01
2.747349900788828014e-01
-2.486006267785754748e-03
2.536337706259872982e-01
-8.869282756065186013e-02
3.286219940062498623e-01
1.244432101117874528e-01
1.498640517936993544e-01
1.302078014351363937e-02
4.879380769810539586e-01
-7.636776960461306996e-02
5.178465093330585356e-01
-4.369712376680822685e-01
2.381558065354581408e-02
3.641685472774672250e-01
-3.501423502138218957e-01
3.093250809362630416e-01
-1.950795989176250522e-01
2.502420285937865252e-01
3.856728150517712561e-01
6.696008737249467546e-02
2.948103941695666141e-01
-4.820753765874876140e-01
-1.628228471910029562e-01
3.279976210214397558e-01
4.827206322921414050e-01
4.362122787976503435e-01
-1.153858914500022204e-01
1.205202021996851225e-01
-1.171107841315561088e-01
1.251631451760884806e-01
2.992083443399992104e-01
-2.651825578820176110e-01
-4.758489544575000840e-01
1.456038043593896603e-01
4.378985149626833384e-01
1.963187772728419156e-01
3.352148513239516237e-01
2.220598536153132463e-01
-8.141254908196353390e-02
1.764937033193404170e-01
4.174625713845506736e-01
4.481870077107614203e-01
-1.075960883767322629e-01
-4.632348718248195940e-01
-2.396750885087477467e-01
1.435183794183157724e-01
-4.024805216442003952e-01
-9.560658772507350800e-02
3.856383335513649535e-01
-2.227577529090602471e-01
4.643954662915013298e-02
3.009050087437437626e-01
-2.328642378282426775e-02
-4.251079177481386639e-01
1.681347250058788101e-01
-2.185499717119870344e-01
-3.960019788628562076e-01
-7.592309080458503612e-02
-2.638321170843599753e-02
4.293888639978159921e-02
3.245391975864226342e-01
-3.072760937605819448e-02
4.246226158085135149e-01
-4.168741872488022082e-01
-3.352405254410028013e-01
4.676417658397956645e-01
1.280727998187008443e-01
6.562146133192356401e-02
-2.476900580039304578e-01
4.823205593842980199e-01
-1.052213334525575611e-01
-2.538670394664864216e-01
2.963162010955374126e-01
6.031298825924657353e-02
-3.799515853575337609e-01
-2.934227877173466448e-01
-1.860744464801622200e-01
4.256561694948941543e-01
4.261233179237586266e-01
3.046281478864876560e-02
8.724068824778967446e-02
1.879258688195961924e-01
7.527343645601060340e-02
-3.389303847482162402e-01
-2.314553206121405804e-01
-1.843358748906205255e-02
2.008584264109175566e-01
-4.988877166276020625e-01
-2.200944072997964018e-01
3.477752661132940126e-01
-3.434564751802815508e-01
-6.365311954353365664e-02
-4.072375096564977426e-01
-1.512082620434025970e-01
-1.427966407414039407e-01
2.479462033754294970e-01
3.684210877090206004e-01
4.528337925617687554e-01
3.128720287585494420e-02
2.718632202619110649e-01
4.035053058881050980e-02
1.533463256455429857e-01
5.602213444838268774e-01
-1.535474473978481746e-01
-3.179130186750079301e-01
-7.082308215768151616e-02
3.468231401917950540e-01
-2.838684357281741344e-02
2.891271109582640997e-01
3.575045750823480778e-02
2.896945695606155113e-01
4.521579621729092668e-01
-5.655745756791297207e-02
-4.047904486822269110e-01
-5.217729828105526213e-01
-1.293192272142435206e-01
4.087021111093425696e-01
-2.136436957091125410e-01
2.825172644661541055e-01
1.539035205337185019e-01
-3.514458027834567733e-01
3.844118684669667885e-01
-2.302832426921985476e-01
-3.943031489535700485e-01
4.525221203724961727e-01
-3.581233542150731863e-01
1.257615623738123356e-01
3.218305325052508992e-01
3.958097055972866762e-01
1.566448146830036470e-01
-1.364399044275023919e-02
1.971526510980959324e-01
-4.665885604395322295e-01
-1.250114423241407979e-01
1.924354879512311933e-01
9.957737226683645304e-02
-5.153439210792281067e-01
4.152197655007764387e-01
-7.505474784035358338e-02
4.774482105827114742e-01
1.485508250709038913e-01
1.716904391957929099e-01
-3.079673647378450840e-01
1.192247062284974984e-01
3.206045066706075114e-02
3.388939172236180020e-01
-3.519949425364851670e-01
-3.777290585788907751e-01
4.805968597454442215e-02
1.654011725475007244e-01
-2.409723273479168204e-02
1.992231782550475117e-01
-1.007583121333679305e-01
-4.217569854721957973e-02
-2.506200796916280837e-01
4.018082847942309188e-01
-3.882043144575326732e-01
-2.800002833093261922e-01
-2.435337944971946444e-01
2.243113475987709993e-01
3.348884364096518240e-01
3.685825010306733596e-01
3.763894640181632001e-01
4.043752943354961826e-01
3.831158654159431132e-01
5.689592044620363220e-02
6.412322362476810533e-02
3.833394689791324583e-01
2.582808860176754595e-01
-3.919389380144939761e-01
-1.236749553765927462e-01
3.020216037035102774e-01
-3.931697019214496769e-01
-2.523852390899947173e-02
1.219682475516970510e-01
-7.278303115822401526e-02
-1.391709343951688660e-01
3.372902062361983200e-01
1.050886920379994344e-01
-3.996909218364497751e-01
-4.265271778117100676e-01
2.116059710937383265e-02
-2.983284494094343708e-01
-4.929592792341450647e-01
4.768675409458846270e-01
3.784265908126739908e-01
3.730496126211466645e-01
-3.409121579008492775e-01
-2.048393693042154795e-01
3.857398319621734295e-01
-2.934831695528513085e-01
-1.962472996258980973e-01
-3.464142278590000013e-01
-2.238409046009597614e-01
-2.373703823178689165e-01
-8.017564167767422811e-02
-3.016562406516781758e-02
5.886914450752602779e-01
3.725359177522301612e-01
5.315166325847178741e-02
1.099521199207636885e-01
1.665798915857306384e-01
-1.966688131335974921e-01
-4.180535313722687496e-01
7.571949439671955828e-02
2.527512148151973559e-01
1.861279336276891738e-01
2.515712388460084048e-01
7.897247202011752065e-02
-4.057216324635208315e-01
3.456170349701713773e-01
3.025820004707716615e-01
-8.760275259336225417e-02
4.549646630248177503e-01
2.633719076137381876e-01
-1.036151576018687626e-01
4.222570200353457925e-02
3.311253038945775051e-01
-5.842594837993994039e-01
-2.605183628383863081e-01
5.016061005005930662e-01
1.526697825260981967e-01
2.907520556859232164e-01
1.219759740080898769e-01
-3.716950685354410422e-01
1.046895345377189673e-01
-1.789140129565754411e-01
1.277196985653013261e-01
4.954380755507050149e-01
3.554366343131822314e-01
2.119513604313796873e-01
5.947234731674804625e-02
-4.777664282285650210e-01
-1.173262841632878167e-01
-2.691161590239755652e-01
-2.040056467029502940e-01
2.507494401683454943e-01
-1.123216719767241301e-01
3.933147057410744107e-01
3.317702437494317036e-01
-2.843272330277085702e-01
-1.095172180875127188e-01
3.703953353120607028e-01
1.710347577642918615e-01
-2.241960256550398420e-03
1.338753666196286773e-01
-3.727778313553110068e-01
-1.162360468837197736e-01
3.633901311994697236e-01
4.525036726491089567e-01
3.394271667085740907e-01
-4.689552331023254528e-01
4.295737802711036557e-01
-3.832754614157957151e-01
2.934461753967728681e-01
-2.504870128801381379e-01
4.163075895274862548e-01
-4.214093587470153501e-01
2.338052085543480263e-01
-2.198067655160825251e-01
-1.663548117585710862e-01
2.885403566657305241e-01
-4.391237375138792864e-01
1.527353750388190934e-01
2.497148842483478404e-01
9.950668703371137735e-02
2.442252091898239330e-01
4.564316571525502964e-01
-4.973204085025987320e-01
2.330833116297705565e-01
-4.705000749163126272e-01
-3.844384862952236470e-01
5.145385321916344790e-01
3.491168288628139216e-01
-1.505412717306589265e-01
3.326235224465751705e-01
2.294857151846126098e-01
-2.129788342531506729e-01
2.296473184674886203e-01
3.279710464548537541e-01
4.543837400160677387e-01
3.740256172407297464e-01
3.384658481952050324e-01
2.348596557158135201e-01
8.687393225641708294e-02
-2.763479801433138539e-01
-2.646139069709008695e-01
-4.403998644416844965e-01
-3.433558329185244506e-01
3.211328704174465920e-01
2.644696943928876443e-01
9.258250559318249862e-02
-1.209557692471770890e-01
-2.405452924322104002e-01
-4.005833072444655585e-01
1.497453179146304159e-01
1.389373645261853252e-01
2.107166929301960145e-01
-3.434056952628646853e-01
9.115294958809917747e-02
5.297243243596249512e-02
-1.446993918536688961e-01
-4.201000815484093320e-01
-1.148625407593424907e-01
-3.146065155295375004e-01
3.347421858698221286e-01
7.904963025609516858e-02
-4.185008357477744689e-01
-1.338676297917799629e-01
-2.734635633516650510e-01
-2.553004065069015144e-02
-2.816140485285149597e-01
1.847234586793033151e-01
4.375311155563726961e-01
4.940072420935298081e-01
-3.542596520155300577e-01
4.440218395654948469e-01
-9.477576180903964087e-02
4.152714383253162111e-01
-3.699545334996786478e-02
5.758184390646626377e-02
-1.749895485247536797e-01
3.914993944795860936e-01
1.025094008000978357e-01
5.922816906416933369e-02
-4.181918696589464468e-01
-9.231519717051994700e-02
3.754232806365162545e-01
-4.329626285149899834e-02
4.652535616247105432e-01
-2.209347655962742851e-01
-4.798116892819432322e-01
3.591723968759710089e-02
1.711707572603283212e-01
-2.294785360355667270e-01
4.467717618462596629e-01
-3.382585792175046291e-01
1.505318925494025240e-01
-1.496721308507923121e-01
-4.774479182442014080e-01
3.775118610611623571e-01
-2.600775945055573968e-01
9.143408558252648366e-02
-1.611171890697372655e-01
-4.973502539426718355e-02
1.645212495519302043e-01
-4.568334525744702397e-03
3.196933597816541961e-01
-3.148728559354512790e-01
-9.501812312976481989e-02
3.632737452890381913e-02
-5.163315797470584556e-01
8.149127715632635549e-02
-2.346127170919639349e-01
3.531996294885905718e-01
4.685346794400174208e-01
4.543074311392826803e-01
-2.417396427420256122e-01
-1.533912776405590705e-01
5.001139668593851395e-01
3.129271757506641993e-01
1.904968726204003260e-01
1.448172428132260825e-01
2.003912655432626699e-01
-4.537589277972978175e-01
1.537070236603847173e-01
1.839025280469194085e-02
3.949965966123676897e-01
2.108765643357308484e-01
4.927395817956868873e-01
8.462805691623566384e-02
2.017760841643330416e-01
9.616714887752007834e-02
2.172091923734257857e-01
-3.289364891244440925e-02
-3.230072005436302462e-01
-3.157287760985117986e-01
-4.368682862858019184e-02
1.792177220657362874e-02
-4.877763617464790924e-01
-1.428743861523970315e-01
4.639739545858691527e-01
-9.658025601493930301e-02
1.153081881113312418e-01
1.805059984901035905e-02
8.343472294609763362e-02
-4.292244128974333495e-01
-1.673627024641595185e-01
-4.594156895892975156e-01
-1.706743787049120054e-01
-2.413743103404275003e-01
-3.278891072308663390e-01
1.662121184074251412e-01
1.954628258090665149e-01
2.644023746825596710e-01
-2.452830493468319550e-01
2.116192972116296145e-01
-9.169701539741038909e-02
-3.089106506788911188e-01
-2.879828592018822686e-01
1.183656082807122284e-01
4.845939020777486617e-01
4.191663057160519013e-01
-7.723774968360333504e-02
4.822338566322102449e-01
4.260103854195785300e-01
2.147918115694991414e-01
3.793764725540701432e-01
-2.790380959375711734e-01
-4.188152352135292300e-02
-1.424016761874005166e-01
-2.753400227355301544e-01
-3.381299324748845425e-01
1.565363653466439464e-01
4.033879893659904070e-01
-4.126215506414118162e-01
1.525822193035591690e-01
-4.393715063390470354e-01
3.675209607388391087e-01
-2.434703739026177760e-01
1.395553219061311523e-01
5.210581896782940925e-01
1.507722879756806800e-01
-3.039966575029975915e-01
-1.214329219844699631e-01
-5.722294619841572505e-02
1.159660751296594794e-01
4.131555641322346428e-01
-2.551272604942946831e-01
-2.271633940409539532e-01
-4.652272233169286175e-01
-5.480388195551973984e-01
-2.725522385420689475e-01
1.397975636506719466e-01
-3.721923917933261383e-01
-2.811573509938218862e-01
1.760677004634965404e-01
2.911302401229097850e-02
1.478266595169583364e-01
-1.913113560898977439e-01
4.219155449090596782e-02
4.427716739952302638e-01
5.220718491448054221e-01
1.408637284088853081e-01
-1.598781759945424874e-01
-2.524616811185101950e-01
3.573847620003686165e-01
3.116686983069492656e-01
-2.841885742702560114e-01
1.677986136516069204e-01
3.268354762881468291e-03
4.630530425155938157e-01
-4.699210867524204749e-02
4.385941750626768942e-01
1.901652035060982515e-01
-2.427652624496371980e-01
-4.592284058912152744e-01
2.926128729292898356e-01
2.185544106720019308e-01
-1.054195033915257262e-01
-5.920112540972888998e-02
4.655132456785172623e-01
1.860231488130959510e-01
7.260712328417463259e-03
3.056981241523946680e-01
4.273776570263113639e-01
4.870770573671094339e-01
2.097606968563873187e-01
-3.232251355203444865e-01
2.838456161441584302e-01
3.586355159773378931e-01
4.899847070875057442e-02
2.528025327230979391e-01
-1.598756232239883779e-01
-3.340738362704491760e-01
3.037460674894858492e-01
-2.147899733161630909e-01
-6.859647495722054344e-02
-4.417913717008742358e-02
-3.912701415107707192e-01
-2.266333829077852857e-01
5.300897205539568668e-01
3.728314301736077585e-01
4.557169308090816551e-01
-1.623164610721394840e-01
-4.768943978361992464e-01
-4.837779949209993213e-01
4.234621589289092047e-01
-3.733262931936132678e-01
3.774662063856940586e-01
1.936541720069317185e-01
-1.337924462119755888e-02
-6.127875293545807095e-02
2.823951325999834450e-01
-3.277166413313915561e-01
9.779868400026839326e-02
3.186766437297210430e-01
2.602415220361036230e-01
4.961935183871938881e-01
-4.643245333533162489e-01
3.995319235624631427e-01
-3.817597774268094435e-01
-2.313993401905340974e-01
-3.466894546748179318e-01
3.341536536240340138e-02
9.686652434898603004e-02
-2.177758005330759361e-01
-1.932546508715481115e-02
-2.246085078475853480e-01
-4.964186019222827095e-01
6.425385733096250496e-02
4.958953819651726880e-01
3.350695205508644192e-01
-2.733627447143552880e-01
2.766202456867710713e-01
4.697224583464130188e-01
2.848732583125397344e-01
4.838418285260271401e-01
2.300145203692371618e-02
1.094568430654914437e-01
-3.173432482821557099e-01
-1.664101897594344459e-02
3.011936021532048424e-01
1.243392936279236055e-01
4.250618671359986112e-02
-2.705023434559932216e-01
7.524115182898064025e-02
-7.514279360370934580e-02
-4.470730855892328659e-01
1.246313949353983069e-01
4.035899248864755103e-03
-4.671238807124626358e-01
-3.975274038085903072e-01
-2.193525924997771770e-01
-7.496407936339183342e-02
4.036326570295911131e-01
-1.590399020090947288e-02
3.424147698961340497e-02
-4.661867038517181761e-01
-7.633925340117030112e-02
2.236680531795152138e-01
4.563892852183798476e-01
-1.188391438072815692e-01
2.249554232784281571e-01
-5.210636156184917933e-01
6.360632909952308733e-02
-1.281737779937314019e-02
-2.496355673092494898e-01
3.662869793406596797e-01
4.027862641015585998e-01
3.478623155512115123e-02
1.770605351275410244e-01
1.981711773178642944e-01
-4.411554850748646284e-01
-4.679060039484388839e-02
-3.107796658418676139e-01
-3.312420140959970727e-01
-3.624314790444848611e-01
-2.742657414602254207e-01
-2.194222789551253106e-01
-4.353717218491897079e-01
3.199901634928224436e-01
3.122642950662589123e-01
1.159035325355931567e-01
-2.826135158774580325e-01
1.776339381219309010e-01
-2.244034130627031443e-01
3.793980182533464585e-01
9.765440910515850448e-03
1.331232436342321690e-01
-2.897184998821653035e-01
-1.431483183954899430e-01
2.495825787819858921e-01
4.871355021885900305e-01
3.237418595251783660e-01
3.701744981904940279e-01
-4.031124293613771448e-01
2.377066643826202808e-01
2.272005984074713242e-02
1.658063121199448431e-01
-1.471130150011839277e-01
-4.593294615039603124e-01
-1.254700862527188543e-01
2.650199378009524542e-01
-1.054113504191745154e-01
3.981155019870317169e-01
-2.061766750467026177e-01
3.595846484936886522e-01
2.236539259953698733e-01
-2.629168268332059827e-02
-3.058060310145450100e-01
1.094843294580931520e-01
-2.072992845672771978e-01
-3.123154915082801963e-01
2.752719385812000819e-01
-8.881673221432437315e-02
-1.365121969470037833e-01
-1.933258207744620039e-01
3.148015213013699021e-01
-4.310394836613486991e-01
-4.139470531943846288e-01
-1.563805490247568708e-01
-1.873582989643960139e-01
3.512529493628066546e-01
3.395860209833241328e-01
1.860172043452501534e-02
4.250843094564174529e-01
1.555553399535893888e-01
-2.309070719582568820e-01
4.807029972611476798e-01
-1.094776837483086712e-01
3.461981547042894958e-01
-8.452897502427719756e-02
-1.037586145124723414e-02
-1.942582326722440966e-01
-6.634196068685324632e-02
2.262807264116494521e-01
3.795632414199405225e-01
-9.827075331536884104e-03
-3.705767031960873203e-01
2.649432039699555763e-01
1.938190073926212287e-01
6.456420839484819374e-02
2.260195385567160542e-01
-7.674215256317697131e-02
1.380528105612467693e-01
3.013540299233232189e-01
2.151214326436151347e-01
-2.735239027353804087e-01
-6.622275130590030146e-02
-1.605661161036557039e-01
4.668520602390207469e-02
3.600893835709794710e-01
3.608275846599743319e-01
4.224797530598601858e-01
2.690441374227724447e-01
-3.858295751179544042e-01
2.854270785857665471e-01
-2.901544472066939009e-02
3.343497381702250637e-01
7.965716544133395749e-02
-4.530873251604042862e-01
5.326649669923863017e-01
3.094347181116108292e-01
1.460901862358417180e-01
-3.149147541097862546e-01
-2.262525665586934687e-01
-1.428798696346167130e-01
-4.632587793439020274e-01
4.847803849409133004e-01
1.959128359320307100e-01
-3.669047442500363854e-01
4.397437237773195173e-01
2.598382213500879945e-02
1.044195208858387652e-01
-6.732661506994340461e-02
1.305218190670520695e-01
2.215531963786578351e-01
-4.626510951464133936e-01
3.660841167068630275e-01
4.147306426347195374e-01
8.708814103108834803e-02
-4.359293233579364935e-01
2.610897954162031964e-01
2.974369888402731421e-01
1.157536280157423977e-03
1.848351625082809147e-01
-5.254699899260723700e-02
1.299901925313964590e-01
-3.069479696738628416e-01
1.326267656218975688e-01
-1.085270111535649312e-01
-3.069495748604443852e-01
-3.733222852787544954e-01
2.441074240915127452e-02
-1.328629989216715823e-01
-4.381482818437070215e-01
-2.630015893459107246e-01
-3.485585654128309230e-01
3.091632885961178023e-01
-4.503759240552274168e-01
1.886173413132504750e-01
-4.054083289014989711e-01
-2.764669342691843945e-01
-5.177511481342757932e-02
-1.489898215267762005e-01
8.634106269443914128e-02
3.010989574449132386e-02
4.199625597553528489e-01
-4.159847000577531762e-01
-1.037637967377657566e-01
4.035806583550733406e-01
-1.489749172046272163e-01
-4.227418474551833949e-01
2.290341773162037353e-01
3.759190564366838294e-01
2.756608148080297305e-02
-7.332720593833942646e-02
1.528733588636196905e-01
-4.047715633737201252e-02
2.185346766099251561e-02
-3.162925961738572572e-02
3.937204564145903030e-01
1.590049296615646604e-02
2.142021009608268411e-01
4.140837011526787848e-01
2.523560038975509734e-01
-5.090872720709470611e-01
5.358075555807184642e-01
8.325966032200551870e-02
-3.945033749834191417e-01
1.429013312010765646e-01
4.684390872978476117e-01
-1.545678608701397394e-01
3.142737836990608380e-01
2.217166697963215694e-01
1.125488628610058633e-01
-3.905717252462007627e-01
3.861751515608516927e-01
-1.274454718730960723e-01
-4.333544286429324988e-01
4.843369174441812253e-01
5.480648230233938108e-04
-2.591914354863890102e-01
1.312345751989874021e-01
-4.184488431115865881e-01
7.550483454268092087e-02
-5.029024643284948359e-01
3.268790143758274480e-01
-1.402325132478390579e-01
-4.311026005989356813e-01
1.508754757443674099e-01
-1.365087860423773169e-01
1.012775161731701984e-01
5.737381092523981263e-02
3.049217197816967428e-01
3.229286592478949891e-01
-2.322535849578706013e-01
4.571119340818000643e-01
-1.527150971122658574e-01
3.703962559313999092e-01
-1.874995967895262128e-01
7.596612761174501884e-03
-4.576428355232606826e-01
-4.970476579920053983e-01
-1.338813389904557616e-01
-7.615594989768634249e-02
-2.454861455907641488e-01
-4.420609673402614570e-01
8.286719462462217856e-02
-4.196869470619727926e-01
5.234694464154081572e-01
-3.096440609840485081e-01
-3.599263169076077351e-01
-5.060626394413584306e-01
3.972058112182961787e-01
4.626645806515463089e-01
3.946833259717299480e-01
4.921449309154470875e-01
-1.769422673692762071e-01
-3.390378662365637896e-01
-4.221216113513518442e-01
-1.204909323556547368e-01
-2.491717524382429938e-01
2.970388297107351416e-01
-2.642232191339384251e-01
1.969506895837084826e-01
-3.534011452183505320e-01
2.365019284617701500e-01
1.499149090073172153e-01
-3.566976787552684214e-01
3.238305432871056433e-01
-1.598777197923747506e-01
1.293938032065293509e-01
3.458773955659871779e-01
-4.612941152373736808e-01
-3.849429622971162201e-01
-1.990224850327638739e-01
-2.601156167349769066e-01
-4.483204466266612065e-01
-4.613273825587566046e-01
-1.145927867414801432e-01
-4.858725882531060858e-01
3.928004935544170406e-01
-1.418208469805316320e-02
1.586487098172516541e-01
4.032831596870977142e-01
-1.093389180713949943e-01
1.599724089714122874e-02
-1.296735159308761154e-01
3.957909528993171500e-01
3.131014971799088165e-01
-3.511310847435006322e-01
3.396013069107208238e-01
-2.192363092630730537e-01
6.624764772899398128e-03
-4.475374309210494173e-01
3.930630767736725123e-02
-2.090486977042896669e-02
2.741273074786119146e-01
4.777409286779172870e-01
-1.842576572691120018e-01
2.589467681044620995e-01
-3.306592078125413225e-01
-1.219546445964881098e-01
3.203247758630383690e-01
4.355504665561733546e-01
-4.600306110245464541e-01
-8.523167729729412556e-02
3.255406899809119015e-01
-3.493208091737259324e-01
-4.839204653709265891e-01
-9.908602622642527502e-02
-2.745031736577799863e-01
-2.730749441205155073e-02
-2.601037717396965654e-01
-1.763352654795931340e-02
7.599154478762790155e-02
2.559400810129899284e-01
-2.658249902854696312e-01
-1.243727550884242590e-02
-4.403854220990041091e-01
-6.470023829551697914e-02
-3.387336396107982761e-01
-2.628664532836406109e-01
7.494555632550221891e-02
1.096223176258336596e-01
9.219940603177130545e-02
-2.951462099365578795e-02
3.180434607734713426e-01
-2.014233118509942688e-01
1.742740362999431192e-01
-1.722966388087694006e-02
1.889079168924309438e-01
1.333703706233733688e-01
-4.250374950640344318e-01
3.545470522136957570e-01
1.649519183598218211e-02
2.596486500082988425e-01
-4.848008674570966070e-01
1.600217152267399690e-01
6.043855852908636139e-02
-4.545046832763767197e-01
-1.488125799813878186e-02
2.240078069001617267e-01
2.508834237019040916e-02
-1.511956215341053456e-01
-1.387529049819150595e-01
-1.126271031156696328e-01
5.089393369286092650e-01
2.758000338114600242e-02
4.298394336016177486e-01
1.513582340361847023e-01
4.590807494246199605e-01
-1.966729720119395342e-01
1.243440281925482782e-01
4.584402526866564707e-03
2.812441768069234294e-01
-7.164459789342775276e-02
2.495834806131637662e-01
-5.026260995070569448e-01
3.345660086312118864e-01
3.472982107419577136e-01
-3.001947799122069993e-01
6.285246762885061955e-02
-2.792314077140736761e-01
-4.509222761205123331e-01
-1.678523190208993099e-01
6.763539572138821399e-02
-3.469779030137919995e-01
-2.275028350093769025e-01
1.323907358175410547e-02
-3.353500684820541200e-01
1.531591419358116213e-01
-2.976030525050277764e-01
-2.839933852192932928e-01
-2.171571137701404641e-01
8.233999838448327613e-02
2.332814170393241182e-01
1.485558370898461544e-01
3.244668017926438108e-01
-1.556458350688910142e-01
-3.538115189132736149e-01
4.566674194658299490e-01
-3.534360769679296133e-01
-2.670392798231193132e-01
4.823096064841148611e-01
-1.014626216651919738e-01
-4.672173842207046346e-01
1.820202176270013794e-01
-1.291381930304789094e-01
4.411261800530325017e-01
6.334862451149614326e-02
1.232061898674702283e-01
9.524282392257882313e-02
3.307202618575055819e-01
-3.918165615711420857e-01
-5.232409362798155772e-02
-1.205369282595597641e-01
-2.843764731872645557e-01
3.444460404052807068e-01
3.043661608903646121e-01
-3.349757969300635740e-01
1.520767157831950378e-01
1.899611654513701231e-01
-2.367725710821059759e-01
4.531501086270122158e-01
1.203530051568117848e-01
-1.538256962144442797e-01
-4.645598355937582413e-01
-8.787914401190391467e-02
-4.122749908524619422e-01
-4.162148369895274369e-01
3.674316456317722190e-01
-3.154473066226238798e-01
2.354386937184495265e-01
-3.762131625539629765e-01
4.754471851596583365e-01
-8.898037231676282632e-02
-1.152505473949868575e-01
2.001961269968250967e-01
3.435617752798200142e-01
2.270146751843278021e-01
-2.523372486522948988e-01
-1.976294654384249394e-01
-3.075957407272788408e-02
3.876372838201665449e-01
1.205196798440536093e-01
2.465172115985301282e-01
1.990497914089901510e-01
-4.597209268227924750e-01
-3.236794672569934805e-01
-4.224063700609983485e-01
-2.957792498413385762e-01
2.818776747476133271e-01
3.751383723421229943e-01
3.262876935412719615e-01
1.211462004234782619e-01
-2.073720680432207877e-02
3.082961008887221133e-01
3.115549982036566190e-01
4.326258338857468244e-01
-4.569148840231155306e-01
5.107346185976774366e-01
3.305926073303785961e-01
4.932277949110576154e-01
1.949097482238314472e-01
4.185397805343535893e-01
1.728619310652257657e-01
9.119972725655632606e-02
-2.190297715208946450e-01
-4.571831632298787307e-01
1.616615751990700678e-01
-1.397922981189630431e-01
4.379731342225763324e-01
-3.321218922451635858e-01
-5.316970205042840375e-02
-8.925477263610447076e-02
-1.475109769459223008e-01
-1.889088852947219399e-01
3.380479590363626996e-01
4.283980572799805930e-01
4.804904266848485372e-01
-3.891382687072782454e-01
4.105859036500735804e-01
1.110111399876546612e-01
-4.301425069076682539e-01
-1.101034030767111677e-01
-4.585030765434702782e-01
-3.360240338179431019e-01
-1.630785217130885367e-01
4.995131600783995207e-01
1.146360189696364329e-01
1.455651654632102998e-01
4.345322992893928538e-01
-3.191520811795072743e-01
3.729903740072501028e-01
-7.495910636256639115e-02
1.839027628566508032e-01
6.381973771475388246e-02
-1.140764548112722064e-02
-4.952320284952633211e-01
4.281059893844374464e-01
2.786725104273858333e-01
-1.652324486379254734e-02
-2.419323489196908705e-01
-6.166530636321700554e-04
-3.863689500746361194e-01
1.092674941429450514e-01
3.147796886102068870e-01
-1.991332131591000976e-01
8.299889702528684410e-02
-1.135656633651368347e-01
-1.368662224471343114e-01
4.700377966544723451e-02
5.120809466674574040e-01
4.547855861708373082e-01
-3.725789226139880062e-01
-1.080489702138296010e-01
-1.975929286236221827e-01
3.887975632003489168e-01
2.606179899214192686e-01
1.445356306126453771e-01
3.243410484078129707e-01
-3.853417987712818293e-01
1.017732001875233661e-01
-1.004113318939726801e-01
1.551895876239655324e-02
4.221971091489230554e-01
-2.786246394276926663e-01
4.025731734235768466e-01
2.335112237278092473e-01
-3.864203735156055419e-01
-2.955723802386490129e-01
4.082896897877275610e-01
-3.186601798575688926e-01
-9.482447998148343937e-02
-4.352781307025434532e-01
2.560791940902969882e-02
-7.523833011693922823e-02
3.433005633762537534e-01
-4.817006990853142656e-01
-4.806730816931040762e-01
4.755508220493782634e-01
8.057884510700329128e-02
-4.498788213522562085e-01
-1.143606107604262512e-01
-2.106924051708437273e-01
2.527040228833851709e-01
7.367085733554108729e-02
2.199238246700058741e-01
4.790474611471604582e-01
7.811009806240278366e-03
4.063314094473550742e-01
4.318582511042406979e-02
2.672291284484832330e-01
-5.302512603115790146e-02
3.293553649997153498e-01
3.485848997020436491e-01
1.529501532338442549e-01
-2.493362462303349292e-01
4.270814817696670374e-01
-2.245600243797306883e-01
-4.017773164498792959e-01
1.326555094113259503e-01
4.794347194763235454e-01
1.196180901137741948e-01
3.139841599372080738e-01
3.891631032626240994e-01
-2.380814572308081190e-01
-1.900653057529310963e-01
4.686444398939650091e-02
-1.502243628108113072e-01
-8.968580079612009995e-03
2.608648397042036549e-01
1.987649357397836547e-01
-5.362722038730428908e-02
-2.179208676834918923e-01
-8.504814519170315890e-02
1.093997271753464756e-01
2.469059619194262922e-01
1.192872331676110009e-01
2.450277751327599729e-01
-3.066009594855511611e-01
-4.115032662104630701e-01
1.725436129998160206e-01
9.918523898546960371e-02
8.707280014101918819e-02
-4.686995180705744168e-02
-2.321512528233235229e-01
-4.427593048784723151e-01
2.066231064936291106e-01
-1.379218991585607901e-01
1.537106129567589186e-01
5.052657493834510349e-01
-1.016649998485655154e-01
7.909012910956614295e-02
1.557573308903484888e-01
3.513518456117941668e-01
4.696931950122804622e-01
-3.185734838155613868e-01
1.817068287211438815e-01
2.221167852278241595e-01
-2.234822078294401160e-01
-3.830857361715141463e-01
-3.035078188098597751e-01
9.881421506953196043e-02
-3.354240291818563757e-01
-2.875496614378862947e-01
4.627839038049943454e-01
1.690759830889806137e-01
4.704406151247461643e-01
4.491795487536271447e-01
6.476828251412458659e-02
-3.725936412042830659e-01
-1.599857339976035464e-01
-2.528012402635524958e-01
6.931947223835406569e-02
3.999313309667638094e-01
9.552082207835972671e-02
-4.859355421316294277e-01
-2.855723157804817072e-02
-3.125029341973285823e-04
1.970521592840731306e-01
-3.769421106191310766e-01
4.995653470230351223e-01
4.656362058645467927e-01
-9.381994681207175835e-02
1.495585370905681832e-01
3.628527077177275822e-02
1.529891636962876994e-03
4.796395790555631894e-02
-2.830151567748092623e-01
5.526256923123181591e-02
-3.928430333780296158e-01
2.233510111688211397e-01
-3.575087930384858170e-01
2.158877406104015850e-01
-2.232981355653666788e-01
-8.841699159895423377e-02
-4.735149326287719229e-01
-3.084891429467297996e-01
3.023697362784113496e-01
-3.996606002190309370e-01
2.938968365671999483e-01
-2.384154779593287421e-01
4.509649359435047994e-02
-2.917900605210108078e-01
1.709320122427832322e-01
-4.200672600640360521e-01
1.591987171705621928e-01
-2.721610772635866815e-01
-2.230652182994325161e-01
-3.890139974355467656e-01
3.265314111082708304e-01
4.155578591410012956e-01
1.696623742783264499e-01
-4.381393586854612221e-01
4.594807482889278760e-01
-4.131348654023311306e-01
-1.031106544305924883e-01
-3.751581219646928922e-01
-3.559392013534066757e-01
-1.404619490759216605e-01
-5.911804846028103494e-02
-2.914292703024742304e-01
-4.798675736447584605e-01
1.638797364544444107e-02
-2.109444552061486289e-01
-1.878455400667787545e-01
2.419269777135569233e-01
-1.384283815268786133e-01
3.136285513934967684e-01
4.031979807557610207e-01
3.053946554089487231e-01
4.103844920850201888e-02
-7.909908617570378386e-02
1.460515926706672796e-01
-3.145736984955526117e-01
-3.987542867737229879e-01
-1.160627437679633417e-01
8.204543310603799877e-02
5.231211686960432483e-02
-1.902294444388213934e-01
3.081833521123203967e-01
-3.910213290658083596e-02
2.734727472969579742e-01
-2.029773032014897671e-01
2.890347958626256486e-01
-2.111035571122019672e-01
-1.883045321051399490e-01
-3.693745467493063095e-01
3.826307307416747516e-01
-1.903443303287740973e-01
-4.131473413347033080e-02
-1.028513361650166824e-01
1.307957142965291142e-01
2.777032247714690816e-01
8.416590567697260564e-03
2.752847151981923646e-01
2.377924018477658996e-01
3.252286866776852303e-01
-3.724105361720689289e-01
4.996304999734682561e-01
3.062453296594338514e-01
-3.298069107426060409e-01
-4.081495146210835090e-01
3.206661711592921904e-01
2.850364358061934777e-01
-1.963305663429120995e-01
-1.052016521901214113e-01
-4.099018219579105837e-01
-3.295890691899381886e-01
-3.926469227881225210e-01
-7.389039544174144658e-02
4.375345603223512736e-01
3.364278237711685882e-01
7.549279054699877325e-03
-2.171467025531914341e-01
3.210829130775900153e-01
8.186067575802485896e-02
-8.606342461629890028e-02
1.116950524327857408e-01
-1.901067291496962575e-01
-1.119789924552367921e-01
1.029571780944703030e-01
3.719867567680484877e-01
3.367532507292231303e-01
-1.552752328175048824e-01
-4.289107299816483088e-01
1.258638057250729969e-01
4.848890580173884080e-01
-3.119584982973028220e-01
-3.665019151570962364e-01
4.244886894077515294e-01
2.199923336347935354e-01
-5.245610682484309895e-02
-4.511014576302046497e-01
4.512090703189435836e-01
-1.990679026755629022e-01
2.263782874196597072e-01
-2.634459600629865395e-01
-1.424428837387770562e-02
-3.792602934691273742e-01
-2.427189231445183171e-01
2.413119262516055241e-01
-3.146900315474829291e-01
-4.765648537186608080e-01
6.309514590828213532e-02
-4.910324627935314101e-01
3.301285001167457711e-01
1.246936474178166193e-01
-9.981629533068175908e-02
-4.644716751584889933e-03
2.546103670840124122e-01
-2.135464304732186402e-01
-2.643638844182267800e-01
3.057880553486120867e-01
3.699442530389669970e-01
2.359589442674886461e-01
-1.638657024227941073e-01
-1.924306712403300312e-01
-4.854870801653765056e-01
3.335238482528081749e-01
2.161533373709156047e-01
-3.406379774918170122e-01
1.680583541433774367e-03
7.458862554801307110e-02
1.025803331798179896e-01
-2.343293380896790401e-01
-2.040616669739239442e-01
2.935624352173520912e-01
-3.374547400580639178e-01
4.038579314263663345e-01
2.761690288265233328e-01
4.334582343401700011e-01
3.107785642194104136e-01
-1.020078346466114783e-01
-3.114431665836622232e-01
-2.355646961455464261e-01
-2.041065423729035710e-01
8.805614872320280395e-02
-4.162522850545382624e-01
-6.890145081108559055e-02
4.666759041160573052e-01
1.429211377531125760e-01
-1.468676226782430518e-02
-7.264686809037215753e-02
-3.951487501014269155e-01
2.606104901562902310e-01
3.374346765812104021e-01
-3.277631993248024123e-01
-4.120761438513830255e-01
4.359753977558513682e-01
4.003522072169839463e-01
3.097268612776068464e-01
3.242451605991655272e-01
-2.066146889888982943e-02
-4.692505943190219408e-01
1.013356807223533967e-01
6.487144962550217553e-02
-7.380446693033583527e-02
-1.599807320711858494e-01
3.532719352701349513e-01
4.683028166143213267e-01
9.629891034284769613e-02
1.511032247315348964e-01
7.507227404271267501e-02
-3.895343145843701005e-01
2.951307178525284236e-01
-7.493129064967565811e-02
3.167395245098256207e-01
9.489484199163090994e-02
1.326209213790781882e-01
-7.603721140632682673e-02
3.276932000177452953e-02
4.389433172729261812e-01
4.433259201294166285e-01
-8.349657235420827883e-02
-2.521124517068987214e-01
-4.781831292717330512e-02
3.483176001797299581e-01
-4.414466986627773037e-01
1.286451259379890188e-01
-5.562026375910156945e-02
2.461532578440483177e-01
3.847189328469314412e-02
7.475044453408688505e-02
4.891532205505220721e-01
3.270491072282249445e-01
-3.740757539233143802e-01
2.236820736854790992e-01
-2.952753427503372330e-01
-9.932317842706746280e-02
2.212669198858908393e-01
-1.286792166511150359e-01
1.267154696530099212e-01
3.847199390124627083e-01
1.667745758758426566e-01
4.109970658035894675e-01
-2.632879615580628000e-03
4.585082281624508482e-01
-2.647020380900951819e-01
-3.405740279664482562e-01
-2.289128495946314568e-01
-2.350289386281235460e-01
-1.085480454983997617e-01
1.494254432000790833e-01
4.392125952652038423e-01
-9.563587130287699856e-02
-7.721936815605572220e-03
-1.142072192425108712e-01
-5.008615035151474659e-01
-2.987901030596462060e-01
-1.209746136796077398e-01
-5.022731275097694903e-01
2.642389314925591703e-01
-9.684230587324367534e-02
4.754915619071032329e-01
-4.691448580114351841e-01
2.199166976919915417e-01
1.623245346332393979e-01
-1.557067158873946533e-01
-2.031474449556578132e-01
3.782833982207368662e-01
2.492624989549943881e-01
2.278210447559655127e-01
-3.850538237107584139e-01
1.879942990698031946e-01
3.273042713878356880e-01
-3.887523317500394260e-01
-4.249088444394528152e-01
-4.579267976940709639e-02
-2.392821479370789706e-01
4.298140150572470897e-01
2.283014910138478348e-01
-2.246929852158494056e-01
-3.713389112877631404e-01
-4.837140167920126466e-01
2.628693909171764820e-01
-3.896291073105083158e-01
5.511462037914957035e-01
-2.922122193050789019e-01
1.040790200077233996e-01
-3.988844712390529623e-01
4.939639605595040894e-01
1.747835251178707361e-01
4.185384817328674512e-01
-3.676451290897430613e-01
-1.915166141530825761e-01
4.450803330020129955e-01
2.876909384355310073e-01
2.075093355480122498e-02
-2.899624216785242625e-01
-1.460759915183224358e-02
3.167083101185325100e-02
-2.280815361969561472e-01
-1.405766698052864361e-01
-2.668435640925213570e-01
2.999485933307100005e-01
2.661700391527532794e-01
-2.301333891981182378e-01
3.798166685153057109e-01
2.701927131500916346e-01
9.845228072010611675e-02
6.013205388442410815e-01
1.982950745805214243e-01
4.413110316153763257e-01
3.972526526444358774e-01
-3.582062285182387451e-01
-2.726983418012408622e-01
-1.960252091351823711e-01
3.416490075146831340e-01
4.526925185608880464e-01
2.333929773789054085e-01
1.055900427373094863e-01
1.733333071803144498e-01
-4.615415215508013591e-01
-9.946359288880546323e-02
-3.389754055793481879e-01
-4.427072121629389012e-01
3.883554338508905523e-01
4.823058911848340791e-01
-1.397602021165470221e-01
-4.164091961169186784e-01
1.380831084280928767e-01
-9.843670838412382773e-02
-2.813480386061514849e-01
5.001399150074540279e-01
-3.365798844385937127e-01
1.911769016055495374e-01
-1.398304499275918045e-01
1.441028387654868792e-01
-6.494185520335163386e-02
1.736912349851640544e-02
3.308106921385066124e-01
-2.665610788788921326e-01
-2.712034837133404097e-01
-2.840259414321223419e-01
8.677986873213774932e-02
3.545600540056040306e-01
1.055420625307766092e-01
9.177635682759485714e-02
-1.279458354871584047e-01
-3.008905081736776843e-01
-2.679253607232393031e-01
-3.244646918989375073e-01
-2.975211139952221306e-01
-4.880889441297002196e-01
-3.418584905681433250e-01
-4.490493348638057575e-02
3.444955703724956741e-01
3.305515264204161863e-01
-4.223693809265081645e-01
-2.729731238896714318e-01
3.698335337247620758e-01
2.342466228606114864e-01
-1.304769279743991373e-01
-4.622247366715664385e-01
-1.046889137085108695e-01
-1.815251862937022620e-01
-3.647263863463138245e-01
1.850525525570292651e-01
3.260469579836777765e-01
1.169223972927148636e-01
-4.904200272244757519e-01
-1.761031322543996913e-01
-1.102236375222992171e-01
-3.804779231493543024e-01
9.870825686027168144e-02
2.920793874007744928e-01
3.006552860716648623e-01
-3.176076213511296042e-02
4.029582872917853581e-02
-4.169366478986878954e-01
-3.883288242660034584e-01
-1.481597617615580120e-01
-4.124718476361426411e-01
8.841403666936534234e-02
-3.888068962051544619e-01
-4.030040651325265677e-01
3.411679261497457816e-01
-2.697510606314078574e-01
-1.991303305725114769e-01
4.065136172245411017e-01
-3.931199849874557339e-02
1.513306054714733118e-02
2.802077049852212953e-01
4.553916429901574969e-01
-1.693109025900871867e-01
-6.299968401264650908e-02
-3.705334989178060145e-01
-4.823908972341778845e-01
-5.732266048687888887e-02
4.803717941057797924e-01
-3.668883612768249480e-01
4.242089985796154705e-01
-4.249871775766568827e-01
2.938945858440306091e-01
-4.528851183372605282e-01
1.917391867056792432e-01
-1.643850615764870515e-01
-4.229363921227625722e-01
-8.700300364493143701e-02
-4.549258774627588930e-02
-3.480723495284160918e-01
-1.752414637874347703e-01
5.233605364252844616e-01
-4.783399758887029729e-01
-4.215244951969506770e-01
-1.841198285324517903e-01
-4.369146425043258786e-01
-1.434558443211649548e-01
1.592905244113842211e-01
-1.150610280493633841e-01
-1.529318395060708102e-01
5.287377136055808335e-03
-1.002921513333884518e-01
2.421504243024059644e-01
3.410576895441994605e-01
-5.652025246666169123e-01
3.425273700880474698e-02
2.583921412793551142e-01
2.285726029252829750e-01
1.435490314584622062e-01
-2.705607756647185509e-03
3.087395148935240807e-01
3.167301021276754946e-01
-3.731566665287743001e-02
-4.774459473388917297e-01
-4.641978560545819699e-01
3.665473421983470037e-02
-2.238466846663581811e-01
-1.456710133669962548e-01
9.256082466895999838e-02
7.640346474838038970e-02
2.224483548366317232e-01
1.121794743517163656e-01
-3.022195755048981414e-01
2.164554268773744850e-01
4.386846674033216542e-02
3.031837372238401218e-01
-4.671683493047588120e-01
2.568328266212054501e-03
-3.556644789634026971e-01
3.928091484482483242e-01
2.486768534354284743e-01
1.888744994567917723e-01
3.543242218357125495e-01
2.864525487712389906e-01
4.352895907999997926e-01
4.202357891919433208e-01
4.154817306992822368e-01
-5.313918102750217129e-03
1.254309185601290566e-01
4.550930331797950479e-02
4.388272355795672097e-01
3.395795067382420540e-01
8.434492689765296647e-02
1.143836716387404417e-01
3.276782044333871602e-02
1.858076554138908265e-01
-4.808291541629051702e-01
-3.900134309526787080e-01
-4.724927239532614176e-01
3.956932664187148840e-01
-1.656319649788426107e-01
4.166337907241288718e-01
3.213743893016087760e-01
-3.290723190435326795e-01
-3.359913009705244868e-01
-4.274472181453772834e-01
3.214201835070493174e-01
-4.225609513325979671e-01
2.530047861316356839e-01
-4.737650482804932617e-01
-2.975117382521518805e-01
-6.287225347636779538e-02
4.554812418636833837e-01
2.594587372598368691e-01
-3.768245571611970046e-01
-2.008924984778411305e-01
-6.615638977692868405e-02
-4.613059327820293043e-01
4.173507155152028636e-01
-1.962914919674564884e-01
4.451255732324909675e-01
-3.384865259778783719e-01
1.371253959634634312e-01
1.195764682225035347e-01
-2.226741175248813098e-01
4.667131097033016540e-01
2.908917017056675824e-01
9.764623450874518329e-02
-4.651578463678546771e-01
4.659306676358015431e-01
-2.566233195909371489e-01
-3.351185960469472147e-01
4.571280805968485628e-01
-3.479031823361823372e-01
4.826025000247652907e-01
-4.033958500296300209e-01
-1.909355227404659350e-01
6.737608899301504757e-03
3.125873510851506221e-01
-9.660855203372564759e-02
4.186712392245094949e-01
1.823223841878773843e-02
-3.986808038387602560e-01
2.284008383008563903e-01
1.516733624785976675e-01
1.415763758058938282e-01
4.795322467840635317e-01
4.843568518337914020e-01
2.267631479567102926e-01
3.200710578398353601e-01
-1.927582663511940575e-01
1.301744072008976238e-01
1.479419292202383274e-01
4.899889575592341062e-01
4.149220941588633305e-01
6.429275002203520273e-02
1.801027423137045724e-01
-2.327035005377845189e-01
-1.174980549605430802e-01
3.664818116444431007e-01
1.241246971832102725e-01
1.462097266101883009e-01
-3.575522688647491121e-01
-3.037149021738018151e-01
4.246026351395405796e-02
2.385064226673123677e-01
4.370595844502765948e-01
1.513034081851961643e-01
1.415862749800561871e-01
4.886231160303582399e-01
-1.318470492079743817e-01
-4.003971689730674854e-01
5.592144294889343781e-02
2.579990952984663466e-02
1.694392718026438427e-01
-2.969449719129307885e-01
-2.717937032049707602e-01
-4.670735322025781899e-01
1.268637263450931307e-01
1.406466987553768033e-01
3.097759251871542441e-01
-4.616753527285176462e-02
5.094317427281719324e-01
-3.076234157215933518e-01
-1.604111614732174895e-01
-5.287460124308624998e-01
-1.086834726802446242e-02
-4.198527046462031120e-01
1.293657184150682482e-01
4.339539016282485395e-01
3.831306005267423043e-01
3.601922749512856403e-01
2.135258739034214537e-01
-3.748898727727659752e-01
-1.816431193116475329e-01
4.582892801831366797e-02
-5.455659347580914947e-02
4.015040097456910595e-01
3.494258828035057829e-01
4.233135058678828000e-01
2.828679949654943071e-01
5.255902579832709698e-01
4.661921095119151981e-01
1.772258547658215888e-01
-3.364386459669840845e-01
4.645079227627034180e-01
-4.093631326310678831e-02
-5.192914911171361836e-02
3.578117411768617084e-01
-3.624721165128178546e-01
-6.359851411977729407e-02
-4.977370686103653741e-01
-2.619930213912002315e-01
-4.069208005724422872e-01
5.263643203478726024e-02
8.887820759699488482e-02
-2.597636836423283246e-01
3.167206553102346334e-01
-7.357431083429571972e-02
-2.080766655012043498e-01
-2.528123182195248786e-01
-4.061617816572217210e-01
-4.125336870594256689e-01
-3.301123637072320843e-02
9.468936124912121291e-03
-1.453867355815687268e-01
2.098074858110750562e-01
-5.360661236580264166e-01
1.189472011983493949e-01
3.795193037546729098e-01
1.130085968752783943e-01
-6.785146345283481206e-02
-3.894505180670657651e-01
3.040312834715937218e-02
2.478384166362974372e-01
-2.953388720286387326e-01
2.643641995290231268e-03
-4.776648989437407011e-01
-4.904431083060564189e-01
1.256536453715443036e-01
-2.139465174793210023e-01
3.176814577532703354e-01
1.025461517063609891e-02
-2.586171667558892495e-01
8.156219583942112689e-03
8.601917399905931183e-02
8.246344903794852743e-02
-9.965807055948851245e-02
3.500484704765681188e-01
4.392315736803182324e-01
-2.988609652929037352e-01
-3.662576113388092969e-01
2.154111141829139209e-01
4.295867722644063913e-01
8.240632119540192146e-02
-3.075936080815900309e-01
2.073794023694245092e-01
4.781445534696419086e-01
6.754695276480403299e-02
-1.789318916144738980e-01
-4.705152985956506106e-01
1.254542006539475230e-01
1.909118976773590548e-01
1.393259710706794274e-01
-4.881220367381722269e-01
-3.944627403570560853e-01
2.329827547174291580e-01
2.266541787088388882e-01
3.413063947255217442e-03
3.513330791310331769e-02
5.081168706949832498e-02
4.126713031820292144e-01
-2.234399683728637703e-02
-2.330829012577581572e-01
1.946018373122053169e-01
-3.346564881579150996e-01
2.275105105995862687e-01
-4.750973313597479097e-01
1.777243526775242888e-01
2.851931530708623486e-02
1.699256953487863764e-01
-2.337682686049361025e-01
-1.413994157452762995e-02
-1.148372648250994971e-01
-1.096038386366338102e-01
-3.509854659050404280e-01
-4.290424028199461004e-01
-1.951483344029508737e-01
8.509351333484481417e-02
2.320831802397877730e-01
6.599834700214914085e-02
3.462558193938549689e-01
8.048717426294832444e-02
1.711083163297958398e-01
-4.535098736512806483e-01
-4.859170578749080205e-01
-2.128132526354957754e-01
3.443047670851951958e-01
6.394120216331586337e-02
-2.648477845482528625e-01
3.944825710951897491e-01
-4.095147313178293946e-01
-4.726820628252135226e-01
4.709197947120923322e-01
-3.474948823318385061e-01
3.421142351447013508e-01
1.448991211472603902e-01
-1.323552311736405085e-01
-5.679758906944606250e-02
-1.651234148007486024e-01
-7.632764104026940923e-03
3.779165468725397825e-01
-2.659333425735873613e-01
-2.415501752691184001e-01
3.126617806050895898e-01
-1.600349290977678973e-01
-3.773131847025544550e-02
-3.642095940565419632e-01
-3.615927491967777518e-01
3.258771292076688142e-01
5.124015904642011121e-02
1.047591571566461044e-01
-1.288369096409413272e-01
-1.692526657192907624e-01
-5.017550161053824231e-02
8.383038162516132097e-02
-2.746588318061587985e-01
1.115669736865141648e-01
-3.973215696260550267e-01
-1.534709315599740442e-01
-4.920685270088606122e-01
2.644023557028066240e-01
5.250405413849550396e-01
4.490354036314515573e-01
-2.144505858131660059e-01
1.303534580605687221e-01
1.145654252364004116e-01
8.943710644684940703e-02
-1.001234544259298753e-01
-2.194189898879821410e-01
-1.805516387385661392e-01
2.364975645418908035e-01
5.944257757713488494e-02
4.475371917277767286e-01
6.861211883645192966e-01
4.084298090521584768e-01
2.780136756728238678e-01
4.352134747681398741e-01
2.670956957607752424e-01
1.955854451342000089e-01
3.272314326608875001e-01
4.956069560403641994e-01
-2.757603633295230838e-01
3.078332325888321480e-02
-3.219064679652794414e-01
3.412903094618502942e-01
-1.110586644321566174e-01
-1.598060526471257181e-01
-9.678076550131003986e-02
-3.095738067764785412e-02
-3.072005886238484140e-01
-3.768395384087682709e-01
1.192881530093720804e-01
-4.635081297524389077e-02
7.689682091426860988e-02
3.563214498813870312e-01
-4.767503713922277009e-01
-6.584295196652002746e-02
2.691368242026044300e-01
3.614645926520581448e-02
-2.731451535711915679e-01
-2.906767476368611880e-01
-1.765329277164721933e-02
-4.209107883911381576e-01
2.774816355883783503e-01
-1.716887426413021278e-01
-4.313462213212684304e-01
-3.829196982846344577e-01
-2.468529609664505409e-01
-3.223530796116054753e-01
4.354244318624941879e-01
3.480680251004331094e-01
4.450368457093518693e-01
-2.332198159792124859e-01
3.898555519822280435e-01
-4.374106633655139298e-02
-3.910552188028593862e-02
-1.125144875247965914e-01
-1.435648430119836061e-01
2.032649864169629728e-01
-1.128732267383724536e-01
-4.572200086505956440e-02
-3.261442600749039911e-01
-4.170164702287242342e-01
-4.312023458349335536e-01
-1.144459431325839383e-01
-1.177626447312642294e-01
3.266393918853954803e-01
1.560823203001268644e-01
-2.884721075102931187e-01
-1.900397563121024591e-01
3.626993277577144070e-01
2.175413661411022548e-01
5.701870137712552328e-02
-1.339031412370906837e-01
1.287174377738803388e-01
-7.024749203456152891e-02
-1.696028463763551430e-01
-3.656610761940889964e-01
-3.495911980626213444e-01
2.799476668392215650e-01
-1.753715232144755498e-01
-4.448276602972582872e-01
-4.400820800562401658e-01
4.523696734097081285e-01
6.343701956676082998e-02
-2.190763776787400807e-01
-2.003985587767221910e-01
-2.752764814182906417e-01
-1.123176076279524122e-01
1.491649020912092782e-01
6.139044296190251243e-02
-4.184628243813041243e-02
9.736665904520845627e-03
-6.430293531633123928e-03
-4.101300778388518031e-01
1.022121161419971835e-01
9.634329090866169953e-02
-3.144319793727066714e-01
5.005364782656857026e-01
-2.019915319944206866e-01
-7.811587361249749950e-02
-1.547145555420217089e-01
4.058175667083788185e-01
2.828699614191697576e-01
-4.144823316031892579e-01
-2.803857548583040260e-01
-1.345260992181850634e-01
1.590890017780456633e-01
-6.579562774222856569e-02
1.711614696138997471e-01
1.986200699850124152e-01
-4.784944451088111173e-01
-2.167618897541177259e-01
5.080895901190599084e-02
-1.190578025513416155e-02
9.642775151224983188e-02
-2.887757544199137105e-01
1.027791439433947129e-01
-1.584588638697983498e-01
2.861643829179721377e-01
1.449874173929616983e-01
-8.301950555421119815e-02
2.577360286333252870e-01
1.367258601334870038e-01
-4.830079449086880916e-01
-2.311061765115120514e-01
1.781482996625822005e-02
-2.177782633420526914e-01
2.743820110982709420e-02
-3.950524065681741692e-03
-5.428475588587080430e-02
3.830869327480131981e-01
-3.805985410293614146e-01
3.187319876242993844e-01
4.706369575779169590e-01
3.939566388353987758e-02
-2.002648875783855920e-01
4.277645236166219833e-01
-4.200994791228476744e-01
4.540751852531714206e-01
-1.789457823978265472e-01
4.296860106030708226e-01
2.060918589561761272e-01
2.274908605436634645e-01
1.956500382392446086e-02
1.732052788005381538e-01
-4.787725793986472578e-01
1.926061486618393936e-01
1.206769375618504669e-01
4.342250435477882919e-01
-1.248794576697789122e-01
3.737801697624103525e-01
-2.222324989763091452e-01
2.873382156034782753e-01
-4.061358358015670911e-01
4.405941861726129227e-01
2.861653178213998672e-01
5.684871628668699550e-01
3.736861480623234616e-02
1.666626590343235625e-01
-1.081293041641952918e-01
-1.510746325414491220e-01
4.526752336324019743e-01
4.359893308663712608e-01
3.023944852492231883e-01
4.103899003313281613e-01
2.297271201440803379e-01
-1.522321338503903609e-01
-3.684311346789604924e-01
3.296165197709519656e-01
6.476280193156204457e-02
3.934136268044911566e-01
1.378361792084337734e-01
4.736995280523529916e-01
-3.748543504006558030e-02
1.905461167784655852e-01
-3.778406577720437864e-01
-2.664960828898421674e-01
-2.504520589739074321e-01
-2.851583509052859067e-01
-1.830716762711277201e-01
6.278588936814735733e-02
-1.890666300046089238e-02
-3.470286224350993542e-01
3.610002801368091263e-01
-3.103341111178322675e-01
5.108342824525186066e-01
3.302563515738629052e-01
-5.032615960495054330e-02
-3.858122221446417255e-01
3.785242610009927899e-01
-5.170937903563690430e-01
-4.921699467899307012e-02
-1.786606103771710141e-01
-1.133677169473002871e-01
4.633144072073191455e-01
-4.466136469802035047e-01
1.891603705218903586e-01
1.155455787773113641e-01
1.139175381073195686e-01
1.963088822494464536e-01
1.049158384777565955e-01
3.360990910665198617e-01
5.774086081528474468e-01
4.290516258874541577e-01
-2.106316575419463211e-01
-1.839248740216479772e-01
-3.900365480757547187e-01
-3.558148936427758535e-01
-1.576748249230702503e-01
-5.288978568248506873e-01
1.802629999169167163e-01
-4.642331927557484250e-01
3.572151264040291513e-02
1.506480859959050123e-01
-4.329964524850319907e-01
-5.147915811597272295e-01
-3.943413677664981409e-01
-4.080505465380243613e-02
1.658746127665624293e-01
-1.345282856877258459e-01
-5.612542170102804984e-02
1.236135650148627446e-01
-1.494755658483910288e-01
-8.942251737395309763e-02
3.764977467581573922e-01
-2.361252126561934062e-01
-1.305466125163483870e-01
-4.911648007797441151e-01
-4.941732719152112097e-01
4.174738299649586454e-02
1.258740322883086099e-02
-4.241131345993029433e-01
1.931888403511010932e-01
3.494094927716787785e-02
-4.590806896847687280e-01
-4.441635739452317044e-01
-1.963661558913979421e-01
1.053594143002362649e-01
-2.529476562560353248e-01
-2.099448173131702178e-01
1.631192752659333181e-02
3.500094229938903734e-01
-2.395829729628193294e-01
-1.003172210673282799e-01
-3.016124502056486967e-01
-4.236208317703410442e-03
-7.859848906096891796e-02
-2.148681008801577308e-01
1.573604527849855605e-01
3.017295583319550278e-01
-1.120007246967375525e-01
-1.496819376727433482e-01
1.588434582281918889e-02
2.326986633215386291e-01
3.025641230923926672e-01
-2.755535517187105432e-01
1.992680395528109438e-01
3.680331542670675637e-01
-3.858117968529687358e-01
-6.637172739077971950e-02
4.618801178679937114e-01
4.221149674401250551e-01
-3.000710082978807480e-01
1.414612800156557493e-01
-5.341147393737444987e-02
2.731850606681525059e-02
4.214563114540182398e-01
-2.244929741470092499e-01
-3.366693146042664675e-01
2.515710320447335224e-01
8.649872555613258296e-02
-2.305293563932259704e-01
-3.684975585143931975e-01
6.217208662321979662e-02
-4.640105634727600958e-01
4.905086837615096340e-01
4.899896821082123655e-01
-2.755846180493624065e-01
7.839759464562013822e-03
1.757781733632917121e-01
1.630689098343649224e-01
4.987791322935456462e-01
4.221462685704912010e-01
-4.444830839822251911e-01
2.250079933092228313e-01
1.160306574902396776e-01
-3.554462178820733675e-01
1.092264976679201416e-01
-1.077489902995540233e-01
-4.618186891060760968e-01
-5.164275077855861040e-01
-1.916494110276518725e-01
2.964802176870431349e-01
-2.302100704058883396e-01
4.098268251036694121e-01
2.056946383634676856e-01
2.569915000073096784e-02
1.527713863318046483e-01
8.285539742979271260e-02
4.538830404306743449e-01
2.635287563443592176e-02
-3.030814623403608188e-01
-1.866168733580065575e-01
-4.618832173862421620e-01
-5.705796386289757605e-02
1.296747974145188165e-01
-1.940535303091228680e-01
-4.259476846042603571e-01
3.836690788960890885e-01
-3.726586744154718467e-01
-3.084036656543599486e-01
2.326290406292515558e-02
-1.436482960365936257e-01
-3.676713936518195003e-01
-4.880500134716930782e-01
1.493376734345290835e-01
3.010541752759449685e-01
-2.003566926192792974e-01
3.671452922345008751e-01
3.655030606530395437e-02
2.853301604952714898e-01
-5.222456988772360420e-01
2.875263123735222193e-01
4.033933039728574421e-01
-1.400617087623115820e-01
-1.909928294197163479e-02
-2.148384945224807996e-01
-3.503803674672970048e-01
4.515330441242651482e-01
3.899125302548545058e-01
-3.369778308601064643e-01
-1.176759627606146913e-01
1.274534154822958183e-03
-2.496412503387325510e-01
4.020681014874406545e-01
4.650146393936441247e-01
1.085393285068344399e-01
-4.836650918485429496e-01
4.331146716273786557e-01
2.608760078378531411e-01
4.373065608458893139e-01
1.278574298573600110e-01
-3.270262412266115026e-01
3.511021947224308715e-01
-3.594015885723026993e-01
2.732027161625290024e-01
-9.655972296200790450e-02
-1.160505267837818877e-01
5.254758269339376842e-02
-4.127132162286731853e-01
8.297676107062139372e-02
-1.749159085600727678e-02
1.722103011573041798e-01
3.915984124737375005e-01
1.912044142757226284e-01
-4.659381510057777898e-01
1.048797251501668026e-01
-3.934538225388783950e-01
2.198732516878524335e-01
1.250831831527800531e-01
5.924857760005616814e-02
-3.065365826343474653e-01
-5.034663485426582596e-01
-1.308787454105875270e-01
-1.491562515971938396e-01
-1.671297714142944701e-01
-5.032496754750547252e-01
3.312646711786407239e-02
4.175647741942025704e-01
-2.497361124609401295e-01
6.033905230943220621e-02
-2.915447242504969894e-01
-3.042402822051170491e-02
3.790204785771918439e-01
1.785237249079503763e-01
1.375417425794630277e-01
-2.796877797048796244e-01
4.302120023712457941e-01
-7.336872894498701336e-02
1.771736138811284833e-02
2.418303476468970092e-01
1.023241035320501258e-01
-3.541105669115554577e-01
-1.072253887928134586e-01
4.311084581312288888e-01
-3.347801146257006755e-01
5.338188227285274312e-01
2.599064175286674439e-01
2.472318444936919823e-01
1.216514951661261529e-01
-3.060864651536351899e-01
-1.770830891577643978e-02
-1.498715489173911286e-01
4.589804823880605511e-01
-1.005038688978810157e-01
3.096911081820383771e-01
-4.561473354316590845e-01
2.277019528932499315e-01
-2.000945012063149175e-01
6.716407181905836854e-02
-4.716751937653612115e-01
-8.952012504320416841e-02
-4.181408540778405736e-01
1.158252987439470916e-01
2.507592328297431061e-01
5.260512776397923140e-01
-4.315246393091323185e-01
-6.902088941235395847e-02
4.893330610596597352e-01
-5.101024828449571835e-01
-1.048328062172012853e-01
2.503853234677028139e-02
-3.724181838641844045e-01
4.070080607479907853e-01
-4.246962578852369052e-01
-4.201738039537378233e-01
-3.297357897004603022e-01
-1.972924236972015688e-01
-3.367478006009706482e-01
-6.666793322662455112e-02
-7.190122675591749390e-02
2.633455702164322343e-01
2.551339414014658358e-01
-4.959883226994159511e-01
3.416537365450257324e-01
3.544739780729447287e-01
-3.036525545690126338e-01
-5.566836035532235494e-01
3.831779379816394049e-02
4.295925205083649390e-01
-2.861598284809143689e-01
-2.713599690820854837e-01
1.409857427259076090e-01
-2.045481272793377506e-02
-3.667401483070732715e-02
3.078953190751280156e-01
-2.860252978502266230e-01
2.470272291079489146e-01
3.569359138883689275e-01
-2.377548771255737214e-01
2.815572640398741333e-01
-2.077504721054940218e-02
-3.307074616295829772e-01
-4.188976540681520477e-01
4.376835298950189634e-01
3.082935725358465495e-01
-2.098472660120665745e-01
-3.853762536760206858e-01
-4.253215575801519988e-01
-4.775481767456640769e-01
2.036983860630838250e-01
-2.192237076612569280e-01
1.130726245957253545e-01
-2.321869688893829498e-01
-4.853109955455300883e-02
3.479766635623603999e-01
2.863815716905313558e-01
1.882541579563001555e-01
4.449342363656756394e-01
4.010139161621986137e-01
-6.574228936309824134e-02
-2.561715234798254137e-01
2.098236928025121770e-04
5.372517885918063341e-01
3.648710163753375868e-01
4.198923448846281908e-02
3.359744012948681635e-01
3.570523333254744802e-01
-1.666827000111368862e-01
3.074476594140190255e-01
-7.835453664525602116e-03
-2.756158289209154066e-01
1.216946565389483009e-01
-8.263085417609461469e-02
1.373259736914103080e-01
1.240835215971430039e-01
4.199131304127667330e-01
-4.233206170002630220e-01
-8.239552558721184583e-02
-9.421725959594957900e-02
-3.957234832638897304e-01
4.172096898505742169e-01
-1.275835465377848088e-01
-3.417866142838761334e-01
2.627994266135662560e-01
4.336193109148536035e-02
-3.991590886743551780e-01
-4.059085749145657229e-01
2.345117577382593022e-01
4.704768692549141096e-01
-8.281065082512412134e-02
2.086071499207757807e-01
-1.274034634628694318e-01
-5.436382624185003704e-02
-2.363720181085323668e-01
2.062016884832479080e-01
3.281096010269337615e-01
-9.025669588389155507e-02
3.436285747566535376e-01
3.964183161906275621e-01
-3.349847368345465481e-01
-2.134126225581194358e-01
-9.361973402775247699e-02
4.814857448097924902e-02
-4.038183077119024689e-01
1.055309463112907298e-01
-4.474709460516236859e-01
-3.024092053121270607e-01
-1.501297421121891573e-01
3.765242454816027928e-01
-2.367501991939561234e-01
-2.179576851947145899e-01
3.488982368179667781e-01
-7.978228328415024051e-02
1.320093742734354814e-01
-4.019444875155370189e-02
-3.697251141165624477e-01
3.827089503085773226e-01
1.023481563054425003e-01
-2.711202924527627012e-01
1.322114155736447694e-01
-1.486242877554767861e-01
3.629483785448976985e-01
8.737379221052829492e-02
3.680370060057504000e-01
1.941252721435619832e-01
-4.232511101512478335e-01
3.892115949650237217e-01
-9.777268969135818888e-02
1.362710906599472471e-01
-2.581235751826585142e-02
1.003590164227336906e-01
-9.136068381418323281e-02
-1.689055983859299170e-01
-5.346374411696441786e-02
-1.784279397938343670e-01
-3.570500803177507065e-01
9.459433425121878619e-04
-4.327740505943825089e-01
9.064336180617976746e-02
4.731670192886616721e-01
2.597960876521815399e-01
-2.951170694671528261e-01
-3.139788406747855976e-01
-8.571794739158283827e-02
-3.088037317811311300e-01
-1.115858505335355910e-01
2.028319368550783597e-01
4.279563260759543519e-01
-3.435392942747945155e-01
4.112201578985608674e-01
-2.996962681037504961e-01
-7.052661989476419202e-02
-7.350327333143784336e-02
3.374974292582099689e-01
1.861168883390654505e-01
-1.633818165991333116e-01
-4.463890301737120092e-01
2.252309495612174473e-01
4.552857054952526572e-01
2.864714084996722310e-01
-2.535589988345910428e-01
4.147322992827508492e-01
7.492952330274811612e-02
-2.767796266429847774e-01
1.763890825944292584e-01
-4.961469712549574362e-01
-9.378225175126468638e-02
-4.241051122112501348e-01
3.999347629108764846e-01
4.750972751936508032e-01
-5.901071951470489296e-02
2.248153394470431554e-01
-8.079750179610638294e-02
-2.683346281029485580e-01
-1.716325373611748972e-01
-1.499533781133939037e-01
-2.052310468057066684e-01
-4.820710169109960752e-01
6.684457474909831498e-02
-3.757441087322257456e-01
3.284154329829803709e-01
5.048065043009793973e-01
3.704134463571594482e-01
-4.327623699325492401e-01
-2.012980392699940946e-01
-4.939936545978915183e-02
1.327604700230580470e-01
1.438836874359238072e-01
-3.042610891859307554e-01
-5.302019441744804801e-02
2.136034215161020100e-01
-1.217870462036711177e-01
2.254815110248631627e-01
-4.195550688494151248e-02
-3.103193349286024194e-01
-4.514381237114267753e-01
3.843057849609385346e-02
-4.770290177210814164e-01
1.872166538518739709e-01
-2.086221703378697903e-02
4.104419827205818549e-01
-3.600537488263335084e-01
2.982544597345411774e-01
2.616115726888252335e-01
-4.051430868223557247e-01
1.705235299967682305e-01
-1.988564599020797297e-01
-2.173478335422869834e-01
-3.861023897062974553e-01
3.667198619063651716e-02
9.177056842534711545e-02
1.331766282483863029e-01
4.943262300813663912e-01
7.145256494805792002e-02
-3.304373941270480342e-01
-1.904620027539984939e-01
-1.919780619180188885e-01
5.031154170766021227e-01
3.460992920047826771e-01
-1.304710900478288915e-01
3.095552318036326467e-01
-1.840982822826514043e-01
-2.855873899012775219e-01
-3.069966810967329485e-01
6.756631224045912820e-02
-3.992044226551781372e-01
3.995394204727494292e-01
-2.750305898704761276e-01
-4.420430225411063896e-01
1.207182579847958098e-01
3.048595973056628106e-01
1.544011218699003346e-02
3.387788021861552479e-01
-3.452925095857127813e-01
2.288469026592962752e-01
1.832758889442886452e-01
-4.558017879906357123e-02
-1.695297473596396876e-01
8.017059959017622250e-02
2.113410825979777363e-01
4.633901158452742863e-01
1.101677595205654836e-01
-2.965551327749286203e-01
-4.932767986466118915e-01
4.071055106711876648e-01
4.002503622854234888e-01
6.270765012791955362e-02
1.001501069596002075e-01
3.820709705003159651e-01
7.592615927245219276e-02
-3.598891013890228585e-01
3.347801748594675386e-01
1.962670542615452818e-01
-2.163119847441303534e-01
-2.642814012358863929e-01
3.191848673581579865e-01
-2.942278040594297206e-01
-1.934903131684974700e-02
-7.927184199761219685e-02
1.215041659030751814e-01
-2.472363794363346412e-01
-1.850305117109568021e-01
-2.723124795891666006e-01
-4.384250833148270465e-01
3.534785946510013988e-01
6.168069707753064818e-02
-1.685355525929803366e-01
-3.465672222178533546e-01
2.932383276295478236e-01
-2.627066438083872080e-01
-4.770082210935556177e-01
-9.596853618015434295e-02
-4.821823763166631083e-01
6.035968884537551427e-02
-2.044638217400976746e-02
-1.727973107450407331e-01
-1.283338928142865321e-01
-3.637470056846974220e-01
9.966930266867218141e-03
5.503739754000131629e-02
1.431448948566886037e-01
3.829465410240402434e-01
7.824890157745867381e-02
4.598638388101995711e-02
3.248402828001936693e-01
3.840492178309852234e-01
2.297779388443986215e-01
-3.397859248984679281e-01
2.398806958396683120e-01
2.506532104214350132e-01
5.275896377483456634e-01
-4.405519438608995059e-02
1.329058035416918505e-02
6.923241653314131383e-02
2.840915870492479733e-01
-1.670748010633791442e-02
3.100078884497012854e-01
-2.546741156687613583e-01
-1.117622046544541892e-01
-8.922274543774290356e-02
1.030506188577523796e-01
4.345080649300704367e-01
-4.718944465048953152e-01
-4.432717119145089257e-01
-1.610993257810710011e-01
1.144059659564828635e-01
-1.807296144308153107e-01
-1.939074531836862403e-01
3.516439530764544630e-01
-2.555167258291418109e-01
4.069964498492847360e-01
4.464115849308478712e-01
-4.662466483585114840e-01
-3.569857487758520409e-01
3.307150775575807278e-01
-1.426907470148237045e-01
-4.890511095393740848e-01
4.809695449999309980e-01
2.251760032601920758e-01
1.844941609214050260e-01
6.134927655230943550e-02
-1.713385934974053781e-01
-6.145412119222098263e-02
1.105913279619202549e-01
-4.525693725625187791e-01
-4.172691560835442015e-01
2.329761267926116763e-01
-4.048094795562004466e-01
-3.046298262709362659e-01
-4.420348274339167549e-01
-1.413540833720240975e-01
-4.150363340753953079e-01
9.081664877347156439e-02
-4.491885180625663776e-01
4.074520591543637771e-01
-3.341892272947569881e-02
-3.996814393224641937e-01
1.322532256790599769e-01
-4.610119032232743441e-01
6.983736964023858941e-03
1.620552786153593994e-01
1.151114573752959336e-01
-1.393216665611849148e-01
-6.486327559713107871e-02
8.568102426433176280e-03
1.233938036439811425e-01
3.071358132422873366e-01
-3.838341128124909130e-01
-3.664832860743413162e-02
-2.023443594461293502e-02
-3.346836132817389009e-01
-3.063778667076170747e-01
-3.316001921098555294e-01
5.230522605502160305e-01
4.622073659473157625e-01
3.688701695892740995e-01
-3.515306419112055325e-01
5.032423246506574632e-02
-2.218925824608058428e-01
-4.248552648944332044e-01
4.187051853514762167e-01
2.988900282510303930e-01
-2.370864662974406234e-01
-3.315175036645938433e-02
5.000717352068749788e-01
1.143260295798960574e-01
-2.241979463781795245e-01
4.938224292603262539e-02
-2.022422587339395839e-01
1.309564164797549501e-01
-1.263322982927362059e-01
9.001777354005596754e-02
-1.495576300463108688e-01
-3.177362665742852199e-01
-4.025826928427737594e-01
3.491327767644881175e-01
1.512228999933346862e-01
-1.257745553721480170e-01
-5.231139207720844064e-01
-1.458118352718587030e-01
1.997576711245142855e-01
9.118114679456944260e-02
2.179082602863456619e-01
3.210911373351900133e-01
2.880553542674062495e-01
4.059060310051539056e-02
1.038311685788109034e-01
1.123586311752863137e-01
4.334827380807442232e-01
3.488048390388150954e-01
3.640104768850112027e-01
2.427551873010256045e-01
2.129696583578747360e-01
-3.986000253826168516e-01
6.946937893812736575e-02
-7.977398332293288152e-02
4.973406160319564506e-01
-3.257253198996475085e-02
4.075431224977828504e-01
4.940354326034160359e-01
-1.371641823121107773e-01
-8.362687074505031903e-02
-2.995666651909287270e-01
2.970179818869060281e-02
4.160380685088004848e-01
-3.801773565236906127e-01
2.760933072184219017e-01
-2.483826904700422167e-01
-3.512408123026422024e-01
3.294670708715776164e-01
2.346405791198463431e-01
2.722864298719607778e-01
2.650657545797110437e-01
1.033320626731349390e-01
1.620138460091276877e-01
-1.805090590476841617e-01
-8.677218550790408158e-02
-3.063005897313366144e-01
1.129234017157782627e-02
3.410377189419591115e-01
2.970074434138251229e-01
3.021014580325998011e-01
-4.359213762138466342e-01
4.561891639516726382e-01
-3.787901622111966571e-01
1.489104869139672993e-01
-1.766736981765173742e-01
-4.500500814185746240e-02
-3.163167580739779661e-01
-4.537044789981214965e-01
-1.860883897883038318e-01
6.371365372010907857e-02
2.428084221764634787e-01
3.299015905245715752e-01
-4.120176385246415718e-01
-3.356873473316909218e-01
3.697327083825165950e-01
-1.755110523720319893e-01
2.254539678539264624e-01
1.281848183805784636e-01
1.889298384319996749e-01
-1.710424067113747171e-02
-1.297664904914992146e-01
8.883281259269563968e-02
3.744919768127455417e-01
2.261211652883007295e-01
-7.205263314180637702e-02
2.852622680617769024e-01
-5.010969909543239176e-01
-4.609031610271234758e-01
3.470494360868039418e-01
-2.974127258116184835e-01
-9.883282763127670956e-02
-3.029474807519143553e-01
4.232655397983709489e-01
-1.559392754197990727e-01
-2.550830126318224256e-01
3.285455044915892575e-01
1.855394067180439199e-01
-3.738091625449795896e-01
-3.503633838017892743e-01
4.282183172262867821e-01
-2.329906643294106794e-01
2.163269470375758785e-01
-1.667631381420598552e-02
1.701827648537732884e-01
2.957476683108235527e-01
-9.680641605261620930e-02
-3.754653543749508215e-01
4.153721451908413687e-01
6.671527699738735717e-02
-9.804054564174911196e-03
-2.355319993248466796e-03
1.085735614005966798e-01
2.911653872228687767e-01
6.040426580917986898e-01
-1.261337315832791739e-01
3.086865463841001467e-01
3.847658076630818269e-01
-3.253890729491137890e-01
3.100698975228924903e-01
-3.246193065977385217e-01
-1.518160695655426107e-01
3.173852385076565974e-01
2.424388901542346986e-01
3.578711691622409319e-01
-4.070279521678489831e-01
4.167676188546546312e-01
2.459389674656854152e-01
-1.535696264883558426e-01
2.625965362412931436e-01
3.778215259389767766e-01
3.081130887787809081e-01
-1.941296138014878686e-02
4.228390715556067936e-01
9.149477710191583624e-02
2.325748131397334661e-01
-1.985319996372955365e-01
-2.581938657789091818e-01
-4.178131572690179651e-01
3.696563873627707886e-01
2.913607376766676471e-01
-2.916800332354183012e-01
3.694582369570250102e-01
4.194702019218720102e-01
4.698153177005685577e-01
-2.419782501371349481e-01
-4.679191958606805368e-01
-2.791138548871304192e-01
-4.614750808829763962e-01
-4.142736750601953566e-01
-2.768352239233536904e-01
-3.080649615153749910e-01
4.690452534491967862e-01
2.215324105071363181e-01
-3.371406528353657756e-02
1.627759257942721638e-01
6.133670682879573122e-02
4.462392083592905401e-01
4.446524973041336426e-01
2.976292398160198527e-01
-1.859040521000120683e-01
-4.697224853485219564e-01
-1.779684855935004528e-01
2.865075675832804980e-01
9.234131502958160820e-03
1.572277534816706457e-01
3.336538007811465922e-01
1.608426975313555496e-01
-4.176830249771917858e-01
-2.475301587616478838e-01
5.076721620734062634e-01
-4.715107351287125409e-02
-2.081677272501902543e-01
-3.267367970566824042e-01
-4.617456714159804410e-01
1.269313230642000745e-01
-3.823578408126617201e-01
-3.626863117554685045e-01
-5.963560131747513982e-02
-4.421732855157137765e-01
2.222057589699901262e-02
1.412810050143751064e-02
3.957251581142796903e-02
-2.430184302695302667e-01
-3.502625970316849413e-01
3.467800920560076827e-01
-2.896383973252869004e-01
-1.356708237447776418e-02
-3.645168370111316891e-01
5.702509647936351150e-02
3.914838752646576658e-01
1.904405730139978881e-01
-4.400017938925223082e-01
-3.832885979785221608e-01
1.727860484838306121e-02
-8.587184444610597130e-04
3.413081965031343201e-01
4.377343772109387743e-01
-4.442347670218462774e-01
1.898594044035296913e-01
1.146449760899339310e-01
1.714892209433677983e-01
-3.304256975089814863e-01
1.661865854373027196e-01
-2.285498682041879059e-01
3.619241996782593951e-01
1.075648524367245513e-02
-1.994442047741228075e-01
-1.443983520121933373e-01
3.745824561251722695e-01
3.811949770253632019e-01
2.237384724500129096e-01
-7.687106679123267838e-02
-3.692788396078494073e-01
3.070908141445095607e-01
3.413585814117636175e-01
-3.216168823846289326e-01
-2.332639793749912149e-01
4.067506848063370123e-02
1.448302587860967605e-01
4.651071922230974320e-01
-2.324691653607344477e-01
4.244562949067857693e-01
1.643758529810812608e-02
1.629496834784068537e-01
-4.648071688301974036e-01
4.822593650254369813e-01
3.966556322111076671e-01
4.923065756033446205e-01
-6.001788740199238796e-03
-2.571201925661869558e-01
2.093603570259492119e-01
3.214309612819330475e-01
-1.874889102063609647e-01
3.017941882886136518e-01
-2.063663567816135733e-02
5.034337247190778797e-01
4.637027357497300328e-02
2.130077247238772731e-01
-4.593048245813790009e-01
-4.558678946214511640e-01
4.449437202505964750e-01
-1.504184023900564104e-01
4.552743520714882530e-01
4.870025363487595627e-01
6.370105362296635265e-02
-1.628290563701864369e-01
-3.497383113808273936e-01
3.896447205513020595e-02
3.127108039299579811e-01
-3.325248193393416929e-01
3.862256641353147280e-01
2.343276648206295831e-01
-1.451718116884058440e-01
-2.321747098135967247e-01
-4.511410634970512423e-01
-2.487618763220861562e-01
7.126771161570918944e-02
-3.700637246702433991e-01
-2.572487217975591434e-01
-2.722127096976357796e-01
-4.857911107101163806e-01
5.117709563830266095e-01
-2.765021876053982974e-01
6.290077453744628844e-02
2.095334019723859020e-01
3.298954274733855718e-01
-2.364188359477784329e-01
-3.493794490766673477e-01
1.383231445757026057e-01
1.572469673548585467e-01
5.221839174381199822e-01
1.700559262773740921e-01
7.813560081335604868e-02
4.597537187303006867e-01
3.884844497017828080e-01
-1.503413543995778534e-01
3.101769216916592797e-01
-4.244413322318775772e-01
-2.526574105915028179e-01
1.996585374498514032e-01
-3.454844857928077717e-01
-2.912309709395107249e-01
4.241134146819879325e-01
-3.665092269399219393e-01
-2.874915819229856284e-01
-2.288432482318110694e-01
5.007820695926237242e-01
2.929623344552418907e-01
1.975636565086273944e-01
8.982529756059370873e-02
-2.164105166533438207e-01
3.429945348731232579e-01
3.340539120634025139e-01
3.763699618593635554e-01
2.052704329837106711e-01
2.476160485686375035e-01
-3.951094158791579880e-01
2.363223883252660029e-01
3.575938003227223660e-01
-1.012063468359381962e-01
2.641110512856456594e-01
-9.051745193989997607e-02
-4.502727669182004372e-02
2.137014119896970821e-01
1.161912015004302884e-01
3.828776901430847590e-01
-5.047177119975138071e-01
-1.504491603396203130e-02
4.811321453455678077e-01
-2.854855703773527820e-01
1.841052145288789577e-01
-4.245359950235210594e-02
2.248547852651849310e-01
1.303456092781858366e-01
-5.084524995810914272e-02
2.996382940516710836e-01
-3.920910318827393326e-02
-4.996667712368781933e-01
-3.849281523672588579e-01
2.090571551043148846e-01
4.127075566055515288e-01
2.012114975054268284e-01
3.574995154650021378e-01
-1.605833805987659235e-01
3.898002875739512985e-01
-3.758842501155407745e-01
-3.196224020555594736e-01
-3.463486219810242850e-01
-6.016149229571767648e-02
1.481384026764925310e-01
4.371907737476795619e-01
-2.293609945394709526e-01
-1.323597469777724189e-01
3.333472104974462558e-01
2.396304941896101326e-01
2.716932721408077400e-01
-4.944408502934353744e-01
3.555366195463152135e-01
-2.332248485467723897e-01
-2.858507304902319079e-01
4.443529066327567452e-03
2.482146559579931355e-01
-3.910192433590985450e-01
4.166516003953801284e-01
-2.117905792674404375e-01
-3.495860837171824720e-01
7.541601565715146116e-02
-2.085282210514570467e-01
1.395716242242775740e-01
-7.515981234339347977e-03
-3.886544018703599335e-01
-1.581813783820525954e-01
4.319832040661721051e-02
4.530080463173367100e-01
1.612225608317181258e-01
2.353018091066162165e-01
-3.113699253024035940e-01
-4.926673915389606084e-01
-1.354986028493795069e-01
-3.481378310029148437e-01
-8.066941013403841620e-02
-1.360559337916387307e-02
-1.023350579308094227e-01
-4.236931417340835115e-01
5.320608443107425201e-01
2.227685613999580705e-01
-1.060972953660802437e-01
3.143105622585733450e-01
-4.878387432943170898e-01
2.900111437767508571e-01
-2.551246893816003225e-01
3.900858447417321906e-01
3.121540544633606973e-01
-2.733379730896277060e-01
1.206652342925172011e-01
-2.028057490528939466e-01
1.061486869966342672e-01
-2.515865639597839598e-01
3.526098303360866021e-02
-3.988816028501506183e-01
4.203841576832289539e-01
4.570012255307140947e-01
4.013100102053916429e-01
-4.660048643895304821e-01
-1.102004630433937732e-01
-1.051569105514015695e-01
5.911594530098643330e-02
1.328757280455557521e-01
-4.734904827411187123e-01
-5.933429788034755986e-02
-4.464555102029440711e-03
2.491977257756990971e-01
8.777440163773528314e-02
3.767866098779931172e-01
-4.113686220780252145e-01
3.943654388222643525e-02
-1.541907381281244493e-01
-3.154572518464724556e-02
-2.620081784088227894e-01
-1.274639185671475605e-01
2.827774248435038773e-01
1.923231423961824782e-01
1.259878903370149628e-01
9.018890060396667074e-02
-3.093318846663797306e-01
2.405818116344436708e-02
1.387381710750746899e-01
4.203709846159210950e-01
1.625827043290686558e-01
-1.888577089286886668e-01
9.157145877131053768e-02
-5.130956679404248266e-01
3.381614973345835606e-01
-1.008866399538476261e-01
2.681068395903548618e-01
1.411754234593246005e-01
-1.029256763398753161e-01
-1.748820665446547684e-01
-2.367953751002239149e-01
3.436145348563288682e-01
-2.237639375885755733e-01
-5.393696387358738048e-02
-4.810246809439814308e-01
4.394378219317825462e-01
-4.488900985071689331e-01
-1.390502149113060082e-01
-1.841937430537322340e-01
-1.494318630032692155e-03
4.497650468473470831e-01
9.050665686304888713e-02
-2.905611931173945894e-01
-1.223925740771548559e-01
6.296479328275262667e-03
1.376296163837676112e-01
-1.381312510837307689e-02
1.094978148744663038e-02
4.853522555327500210e-01
2.690441680385028400e-01
-3.740815659008116939e-03
-2.102686237926551793e-01
1.141281771652522814e-01
-4.054828070163528642e-01
-1.990942661524808255e-01
-1.512572962532559018e-01
2.438624484719171259e-01
2.467248063656663493e-01
3.010136077650161224e-01
-3.335157425964076494e-01
3.347559736250493301e-01
3.084327236895170743e-01
2.741389205426048581e-01
-2.712281914913466374e-01
3.816266229909870966e-01
-3.679229728476054451e-01
-2.406023214048075842e-01
1.566666315661767173e-01
4.091003812064912884e-03
1.527062402349032011e-01
2.403035708310909818e-02
4.668929647095972357e-01
2.576776047543109516e-01
3.640316525379402313e-01
-3.566749681453680321e-01
1.972657903898311291e-02
-6.808202042766393902e-02
-1.405104441269370563e-01
-2.156048885458927977e-01
4.829904601737532999e-01
-1.502654541624205142e-01
-4.624506526404461026e-01
-1.958719655635269077e-02
2.949407704728854163e-01
-1.817346387721552881e-01
1.040545478218337094e-01
-2.192467316713056155e-02
1.689013238906487413e-01
1.298383982985592544e-01
3.601192663063770283e-01
-1.850243735613039120e-01
1.673249986440539239e-02
-4.068169692949587524e-01
4.528992287710232878e-01
4.339722895779750678e-01
2.437582632877152433e-01
-4.987229697658835947e-01
1.689939028217191108e-01
-1.518782320528868912e-01
1.434220624769620978e-01
1.364575892464867934e-01
-3.572703619831557598e-01
4.713658012715096768e-02
-2.881266474296637070e-01
-3.658840045830017429e-01
-4.804223544548622549e-01
-3.954802099499056811e-01
-3.748997527254079865e-01
7.065649796452083686e-02
4.925786136884310329e-01
-1.394494899027524937e-01
-3.273445866309065977e-01
4.127951644837761225e-01
3.649842563490492964e-01
-1.264763099622648046e-01
1.749816879542823722e-01
-1.563906268074718303e-02
2.010475009623894083e-01
-3.732926818835105576e-01
-3.973458472481341541e-01
-4.468831213093217847e-01
-6.180203118791599559e-02
3.422169379123876642e-02
-4.287003946317159350e-03
4.945253242626711232e-02
3.313628597542045973e-01
3.091684943164056398e-01
-9.831055212825262624e-02
-4.729944836264414754e-01
1.548057833886038737e-01
9.927698068612716975e-02
-3.091512214619153778e-02
4.340102501366861487e-01
4.368562731480515188e-02
3.758882941967803953e-02
3.273259053308548716e-01
1.129722733193037759e-01
1.025965087847592466e-01
3.165956810725849557e-01
-1.594232642738959982e-01
-2.349423065808231292e-01
-3.197994965655971411e-01
-1.877783724586511438e-01
1.414781250176412597e-01
4.697193757119457747e-01
-3.133659116539407874e-01
-2.298704856094290483e-01
-3.292229838719398227e-01
1.106943746712660825e-01
-1.739485764056919737e-01
1.134520348732812184e-01
9.535591938421611458e-02
-3.282904337058911021e-02
-4.861995130061890769e-01
9.614514476395813469e-02
4.364669627969317567e-01
4.213652230115909059e-01
2.554069407278566906e-01
-1.773100882306056503e-01
-1.568780636489311708e-01
4.611882192492578608e-02
2.609709712973947160e-01
-1.577048239020867326e-01
-1.548523168845939990e-01
-7.531187390358488887e-02
4.690211363871131800e-01
1.996973024664656093e-01
4.265994425279418523e-01
-7.153695415303221172e-02
-2.829537436845532272e-01
-7.374243629858545646e-02
2.893349992391507364e-01
1.053378426180794775e-02
1.086042826097192854e-01
-2.833943259823063499e-01
3.256661132365814559e-01
4.290413123616835245e-01
1.406169397600668947e-01
3.329245891682283687e-01
-1.013183189337914375e-01
-1.149771463440173030e-01
2.809378115042128563e-03
1.358649863996575224e-01
3.832275645370697981e-01
2.240121463198782026e-01
-2.199444399583811716e-01
-3.160531203031467506e-01
1.268262577862777629e-01
7.217088512456234506e-01
7.180944031817241280e-01
-1.463958652807035299e-01
7.903812474231860508e-01
4.195114959283171574e-01
-1.066533413363368876e-01
-3.401567850387360314e-02
6.368886432445133861e-02
5.735613254402199823e-01
8.036900477440468427e-01
3.620693173125772990e-01
2.630793643801716541e-01
-1.604755157539665134e-01
1.661872254069823862e-01
5.200159927150295180e-01
-5.646625868056805164e-02
5.428500598155691081e-01
9.890015790537499962e-02
6.222193560257502920e-01
3.849956819361597393e-01
1.290605738857432058e-02
2.698725922388985898e-01
4.614045274723928003e-01
5.339604304854488337e-01
3.296372342114430032e-02
8.014807849729529421e-01
3.235412082254703892e-01
5.810647732974144608e-01
5.122770420420355020e-01
2.686203237119302173e-02
-1.847849578001953263e-01
6.775537212922803088e-01
5.594203642114217168e-01
4.232940890295780814e-03
1.931195168125828254e-01
5.221018498281005948e-01
2.569205581970517294e-01
-3.687089989517725735e-03
1.957426671483481484e-01
-6.614103706505507392e-03
-1.824501080438499789e-01
1.787554774520828949e-02
5.711878851095334442e-01
7.953261953865673473e-01
3.284687936331561753e-01
2.135228936924584708e-01
5.243544434459442849e-01
5.794233361647406211e-01
3.098212811543094025e-01
2.558609562516913627e-01
2.431399511214044074e-01
7.327321641386371764e-01
8.601667731596739086e-02
7.184503912858046792e-01
1.124553485629113808e-01
4.741342532187236003e-01
-1.593172569382073633e-01
-1.119410347873654177e-01
5.905963520754544671e-01
7.980674831473911768e-01
1.191050767972642588e-01
6.101060965526408086e-01
7.377407431640972124e-01
-1.638532557653046562e-01
2.159027803583550842e-01
-3.932705236191058606e-01
-1.493357629126629560e-01
-2.435052905515509292e-01
-9.308215504279532260e-02
-1.650101659587605851e-01
2.161599449660382699e-02
-4.484531866017574253e-01
-3.502614627829155891e-01
-3.130631683979944735e-01
8.054085303881650115e-02
2.227042846501640916e-01
-2.778365023847991777e-01
-4.940115757214528780e-01
-8.931148328530717773e-02
1.933531740864801174e-01
-3.325239229816480679e-01
-1.546081461215539909e-01
-3.749988834253301789e-02
3.133352499524467705e-01
-2.055870545041936781e-01
-3.613237407051483885e-01
3.602874037674537733e-01
-3.860100809749975048e-01
3.266711994773618399e-01
2.980557582247820303e-01
4.718203332375121017e-01
1.764968855721059104e-01
9.766673600904098029e-02
4.255175823930351098e-01
3.549662770231327147e-01
4.616759573178592646e-01
-4.354266175471292050e-02
-1.943693867977281109e-01
-4.619473211136927993e-01
-4.244710733261218838e-01
-4.845575792798462178e-01
-3.543165562641027444e-01
1.580003095506165856e-01
-1.607687039287638564e-01
1.051664289122831442e-01
3.646430787429785769e-01
4.924524945185870806e-01
-3.828913550179689484e-01
-4.687237914058010602e-01
2.654242737882352987e-01
-2.999975126649804813e-01
2.095456803769295273e-01
3.373949709593094815e-01
-3.995149413752159540e-02
1.134494616387549115e-01
-2.748979026862120589e-01
2.689747059823320297e-01
-2.057905336901343640e-01
4.325256218035112843e-01
2.216062250455653748e-01
4.763668489003786144e-01
2.697621031068370701e-01
2.418515685240949231e-01
-1.924766976272835640e-03
3.496672569850651224e-01
4.441404110070191757e-01
-4.478458039988676420e-01
3.987759408977516462e-01
5.035376870220916734e-01
3.289589500706452951e-01
-4.603708745636972965e-01
3.196467368665135700e-01
2.067945493676273117e-01
-3.301877738284957897e-01
-2.840440961403720155e-01
4.051068742336160211e-01
-1.095918478127220902e-01
-3.101924553631007497e-01
1.002998036451600156e-01
2.682437916087754282e-01
-1.141748413334999074e-01
-3.195438990849667760e-01
-4.827309161217451794e-01
3.238483068211026050e-01
-3.372753146482322401e-03
3.242938972206931281e-01
3.904375279620462824e-01
-3.117393830289367784e-01
1.451432239113925882e-01
2.052030083049438125e-01
-2.645838863851885936e-01
3.480876103691509793e-01
5.012165726694323142e-01
-2.248524679824041583e-01
4.979099791433564404e-01
3.977150776060228154e-01
1.956069136461195679e-01
-2.131297125373131374e-01
-2.390312228552573526e-01
-2.642496609116476991e-01
4.385502556824519282e-01
4.266158011790782689e-01
-4.520727253708457516e-01
9.553361621012475269e-02
4.335710470125213600e-01
-3.705652770692804965e-01
8.635860194348289175e-04
-4.757294866013650481e-01
3.831207874564530186e-02
4.090655290519125131e-01
1.046618545465401034e-01
-3.442825354223375545e-01
9.562742530159511201e-02
2.449634621130627188e-01
3.960184262512526643e-01
7.396776096192177186e-02
1.265295101211351692e-01
3.469788180514062348e-01
-1.092274620172504901e-01
1.824722861177162092e-01
1.637573837298022528e-01
-2.507455819762770544e-01
1.220727485566172512e-04
2.287733612591888732e-01
-8.298048528777009214e-02
-1.265841205578894235e-01
-1.535034292877913153e-01
3.788312999513600010e-01
1.717995711008854509e-01
-1.152177622470103163e-01
2.045628547270781916e-01
-4.781429187599883779e-01
1.281312288392503218e-01
3.906983219547648378e-01
-2.911589715749323126e-01
3.889041932461678036e-02
-1.890185077436697114e-01
-3.048943739194771574e-01
1.483058236496562488e-01
8.316729191338920191e-02
1.478232308661793226e-01
-1.959961384650542038e-01
2.855042134741268556e-01
-3.211021990790044467e-01
3.650925044490224147e-01
1.129478784638340838e-01
-2.733670310335282738e-01
4.441106958770135726e-01
-4.088210187422464670e-01
-2.891368033810160498e-01
4.041227010150778010e-01
-4.316586319063903804e-02
8.365934575889279190e-03
4.777140767457759701e-02
-4.034235760862102116e-01
2.451897313680628798e-02
-3.514309281221362768e-01
-3.515592202803107247e-01
3.876033260122221935e-01
4.029875013031620212e-01
2.782760816577708463e-01
8.450996541559074871e-02
1.024238458963483700e-01
-5.888073993657597094e-02
-1.568601140624890644e-01
-1.047705863154340528e-02
1.380026450649105285e-01
1.618518844237636922e-01
-4.115224670950896613e-01
-4.248089946987066434e-01
1.599661361749041277e-01
-4.161144141139440089e-01
1.641368964573865497e-01
-2.236312246753162647e-01
4.678027038797332171e-01
3.763944571674806561e-01
2.487184845708899084e-01
-5.104332982603517754e-01
4.167998746048821590e-01
-6.856508770675551895e-03
4.346235756501108938e-01
-2.437926342823784898e-01
-1.552268188388629400e-01
3.634478805765693488e-01
-1.321852613729219694e-01
3.635209328996997225e-01
5.688489295555161640e-03
4.430426183152202380e-01
6.539153506260397819e-02
-8.154315509603776713e-02
-2.883042133550276498e-01
-3.851556084275425396e-01
-4.641322754739035106e-01
-8.673964645480791713e-02
-1.656186983999770324e-02
-1.223370261332420994e-01
-2.475632226591040763e-01
-2.763843593588550807e-01
-5.794489100816574423e-02
4.172815066568258402e-01
-1.015535190481928196e-01
-2.524053809910304924e-01
-4.787489470187127893e-01
-2.487026050636157726e-01
3.410197228459505570e-01
3.018325272749534660e-01
3.054415281951078365e-01
-2.407310834698886404e-01
-1.479571186115701542e-01
9.619785429209971872e-02
3.190126217391758279e-01
-3.741160415106728476e-01
4.495804205885704785e-02
4.694788873712082283e-02
9.592822889968372069e-02
-4.002676118639205138e-01
-5.004057915506270326e-01
2.481287062115976605e-01
1.380299865563238693e-01
8.726183379449407862e-02
-3.351896359251559931e-01
4.015095317420374066e-01
3.438000854992419308e-02
-3.876933051207660796e-02
-2.448589219285545737e-01
-4.666698546147528548e-01
-3.059073569609354060e-01
4.385469610754726411e-01
3.656781832820031886e-01
2.172806689228269084e-01
-2.367432600905274853e-01
-4.736062797909379452e-01
-3.977306776116873999e-01
8.839522205025576729e-02
-2.523730809144510423e-01
4.542798785918419346e-01
3.016061948707529639e-02
3.139005966462404262e-01
-1.396094204480717305e-01
-1.143426912935244510e-01
3.627654888953918411e-01
-1.557823891746560607e-01
-3.293819829216539791e-02
-1.628408035865787015e-02
-3.867179927885124879e-01
-2.619139451901533744e-01
2.768871210563425556e-01
-8.269626583428198174e-02
-1.729830373293317070e-01
4.031554913263640239e-01
-4.099692964999186451e-01
-3.873680850271818410e-01
-4.651259448486882997e-01
-1.590350731179059063e-01
-3.226545725177186741e-01
-5.105246716649223249e-01
9.135580738920985946e-03
-3.236591030318418660e-01
7.834406111893395253e-02
-7.010565802998505736e-02
1.509590227460641254e-01
-3.000892327050323494e-01
-4.936459306176591705e-02
-9.492191712382416768e-02
-1.242116107712122053e-01
-2.433777128793395694e-01
-7.871920598125091428e-02
1.325058085806491912e-02
1.290610394808137940e-01
2.884735198174473436e-01
-1.380295770961988133e-01
-1.090405247417722823e-01
-4.018815643544295657e-01
4.944506018703852535e-01
4.720218526824916938e-01
-1.533035133865229549e-01
-1.690614053472000999e-01
3.342755078918040468e-01
1.699200002786832586e-01
-4.244228063867465095e-01
-1.538359611395877791e-01
2.456539845840578218e-01
3.004119849058855540e-01
6.734135584010393638e-02
-8.726918404095662662e-02
-2.323629891388046542e-01
-2.993619986114265386e-01
-2.861490270903138122e-01
2.947625282845135475e-01
-2.443228595845845230e-01
4.781072123769641857e-01
3.619155978469205115e-01
4.667674530562464508e-01
1.024235259257518516e-01
-9.570101462440512227e-03
-6.385288404404936002e-02
1.069167685253229472e-01
-4.418961654099821112e-01
4.263659526808311062e-01
-4.911349585795141692e-01
2.932109191855607477e-01
-4.290347853905293607e-01
3.213596937928456798e-01
-4.084312944140715551e-01
2.835769489790075371e-01
-4.624181614149608932e-01
5.615227986164712803e-02
-2.363913181748280024e-01
4.184996327708841446e-01
9.466094745346002870e-02
3.448876163786330773e-01
2.899363434680067853e-01
3.409902239147870606e-01
-1.700681573279915967e-02
1.691288243226142796e-01
-1.713835294289839384e-03
-2.840443911170049685e-01
-1.070585723638590864e-01
-2.664665048535008740e-01
-4.874273322250762819e-01
2.866986315428770582e-01
-1.574345639744499648e-01
3.889017675084568970e-01
4.822391317259524524e-01
1.836304970440684123e-02
-2.721167780254178381e-01
1.013764866318038055e-01
-2.388264781060671360e-01
-4.196422195192485716e-01
4.411113134639365052e-01
1.774668875173905369e-01
-2.216904267670102291e-01
-4.212873302826519728e-01
2.713222060054458207e-01
-2.108100999284838739e-01
-3.739326218161010407e-01
4.549354884915926545e-01
8.809014485148536355e-02
-2.625493260213252467e-01
3.937078107435589280e-01
-3.428701709226477656e-01
4.123401639818133901e-01
-1.465130492878924107e-01
5.265386362476053711e-02
-1.605798085796577568e-01
-4.719635325964000039e-01
-2.731142739712787426e-01
-2.717414403672054335e-01
4.433710768718621825e-02
-3.526107051263325798e-01
-4.817171937531246062e-01
7.728093859298133805e-02
-3.718955307833504143e-01
4.944668941459562372e-01
1.981442710497834797e-02
-3.224024780650798505e-02
2.709672310430619180e-01
-2.610331190178396543e-01
-3.712127658604388869e-01
-3.084320198396560131e-01
-2.198426324618681094e-01
-2.038992940098384443e-01
4.764762196183144338e-01
-2.726393721727694563e-01
-2.073624540741693112e-01
2.507260890955914090e-01
1.289064320314102507e-01
-2.232347201391352842e-01
3.228105063472156977e-01
1.634595356626106499e-01
-2.300809869339676475e-02
4.270370884126333255e-01
1.338424274233790678e-01
1.094920033760411054e-01
-4.139835295467666348e-02
4.590290712755388247e-01
4.019031498702901328e-01
3.664399846636119396e-01
2.144079385317817776e-01
3.407162687014558267e-01
-3.641713970808201362e-01
2.890054442761362530e-02
4.488150577212844938e-01
2.137101091128078001e-01
2.886217771445702129e-01
4.548090664979230757e-01
-1.926462364444098685e-01
4.520988399582586692e-01
-4.795086477689250448e-01
-3.494668769447040191e-01
8.444728578949520226e-02
-2.144434963597963428e-01
-2.517528672672647017e-01
-2.315487138332167349e-02
2.557490108978865972e-01
-3.163771651114785644e-01
-1.857020912903443316e-02
1.566113551963823070e-01
-3.280317064328401311e-01
7.406089865604793820e-02
-4.135359834713263072e-01
2.483687300044186697e-01
6.190052118318003366e-02
-4.334071790930748430e-02
-2.639713196548484353e-01
-2.744236644768828851e-02
-1.509475107639189073e-01
